-0.00026700462331064,-5.448732918012e-05,-7.6332587923389e-05,0.14109486341476,-0.00011877856013598,-0.00011305107182125,-0.00011905771680176,0.14490306377411,-6.5621308749542e-05,6.8666515289806e-05,-1.7090707842726e-05,0.00017630943330005,-8.2053753430955e-05,-0.00014246632053982,1.3840947758581e-05,-2.9382814318524e-05,2.5123406885541e-05,-4.0823742892826e-05,6.1635510064662e-06,0.00011333327711327,-0.00016245685401373,0.00011824477405753,-5.5109314416768e-05,0.00010982531966874,-8.8912216597237e-05,-0.00015837218961678,-8.3834871475119e-05,-1.6180463717319e-05,0.14480967819691,4.0253795305034e-05,-6.5747335611377e-05,4.1808765672613e-05,-6.5454994910397e-05,-4.3840584112331e-05,0.14194758236408,-2.9064276532154e-05,-8.362575317733e-05,6.1158090829849e-05,5.4445707064588e-05,1.2445717402443e-05,-8.4173028881196e-05,4.8748002882348e-05,4.4498260649561e-06,2.2580177756026e-05,-0.00011933397036046,0.13736793398857,0.00013572302123066,-6.8910405389033e-05,0.14446179568768,0.00012895309191663,-6.226161349332e-05,0.00010817229485838,2.5085957531701e-05,-0.00016579443763476,5.6809756642906e-05,0.14198340475559,