0.0060124974697828,-0.01931319385767,0.017517935484648,0.014732060953975,-0.0024771236348897,0.014735891483724,0.026873577386141,-0.029672274366021,0.030712239444256,-0.0046716155484319,-0.027319323271513,0.013547709211707,-0.01001476123929,-0.014212071895599,0.0042716306634247,-0.004941082559526,0.024827213957906,-0.025246623903513,-0.0078927297145128,0.0010303363669664,0.030680937692523,0.029784295707941,0.019610734656453,-0.026397857815027,-0.0027569804806262,0.022076657041907,-0.019754374399781,-0.027024513110518,-0.018516456708312,0.029666107147932,-0.017611498013139,0.0017924879211932,0.028399040922523,0.024664090946317,-0.014798866584897,0.028652731329203,0.029794499278069,-0.026916954666376,0.0028663841076195,0.003365898039192,0.029059465974569,-0.015929030254483,-0.030837934464216,-0.01849465444684,0.012483187019825,0.0049562510102987,-0.015376304276288,-0.01749056018889,-0.022187661379576,0.010028522461653,-0.0082652289420366,0.00088581920135766,0.0016121864318848,-0.015051593072712,0.017621016129851,-0.028308065608144,-0.016423573717475,-0.015511562116444,0.0050778719596565,-0.0059060379862785,0.016209734603763,0.03014967776835,0.027393575757742,0.0085261212661862,-0.0044399313628674,-0.0071940198540688,-0.0036703036166728,0.015448541380465,0.031341269612312,-0.024631353095174,-0.0045649809762836,0.010689972899854,-0.01047140173614,-0.018180785700679,-0.013751113787293,0.020076213404536,0.031001156195998,0.02815618366003,-0.013424743898213,-0.030405821278691,0.018137579783797,-0.031072845682502,0.024126827716827,0.017320172861218,0.020799232646823,-0.018468553200364,0.020616218447685,-0.016641680151224,-0.012592300772667,0.025949830189347,0.021674938499928,-0.025435697287321,0.023557364940643,-0.015997603535652,0.031465407460928,0.01118983887136,-0.025519508868456,-0.0002388970751781,-0.021397667005658,-0.010189536958933,0.01060909871012,0.012670983560383,-0.021823784336448,0.02637848816812,0.022788546979427,-0.031334046274424,0.017562692984939,0.012950913980603,0.028421673923731,-0.016244057565928,-0.024841696023941,-0.012262340635061,0.010861301794648,0.014979339204729,0.02085499279201,-0.02968754991889,0.026540832594037,0.0074950624257326,0.016945425421,-0.0022557557094842,-0.0045998157002032,-0.0083023384213448,-0.0059807174839079,0.0026111442130059,-0.023399433121085,0.026826500892639,0.002626791363582,0.023479659110308,0.011965045705438,0.019157525151968,0.0028630837332457,-0.022900128737092,-0.0062180869281292,-0.023626696318388,-0.0038987689185888,-0.025752261281013,-0.00039893222856335,-0.017072778195143,0.014015212655067,0.02259910851717,0.030550818890333,-0.016778565943241,-0.0016703581204638,-0.0048994733951986,-0.020983539521694,-0.0062692859210074,0.0064188288524747,0.014560521580279,-0.0045287059620023,0.0089839519932866,-0.0011779688065872,0.018126524984837,-0.025280218571424,-0.01072449516505,-0.03040293417871,0.028924308717251,-0.016854448243976,0.02205659262836,-0.022420128807425,0.030135152861476,-0.012854834087193,0.019574346020818,-0.012991420924664,0.0090879900380969,0.026542628183961,-0.022823201492429,-0.019747331738472,-0.0071176700294018,0.0045460485853255,-0.020307911559939,-0.025907585397363,0.017921827733517,-0.00066344911465421,0.0095716249197721,0.0153430365026,0.029162526130676,0.019871216267347,-0.025452151894569,-0.007002416998148,0.02763001434505,0.010610221885145,0.016872437670827,-0.0081649990752339,0.0031637381762266,0.028349101543427,0.026319019496441,0.019499881193042,0.023624908179045,-0.028163766488433,0.007865721359849,-0.002991552464664,0.0092630721628666,0.0080960830673575,-0.025526881217957,-0.022989669814706,-0.013649515807629,-0.011241222731769,0.0054949373006821,-0.0195271987468,0.016120905056596,-0.0042209550738335,0.0052098142914474,0.026477420702577,0.031130082905293,0.020466892048717,-0.0087236678227782,0.02276542969048,0.0068067195825279,0.024310439825058,-0.012622146867216,-0.0074072936549783,0.010398554615676,0.022366266697645,-0.0027432108763605,0.023129876703024,0.0013545530382544,-0.019142158329487,-0.025980710983276,-0.02241039276123,0.0040776608511806,-0.021369267255068,0.010298672132194,0.028969518840313,-0.00099000171758235,0.0019523418741301,0.024341758340597,-0.0063725062645972,-0.0042335349135101,-0.018914366140962,0.01557204592973,0.023154685273767,-0.014263494871557,-0.0051449965685606,0.0067172711715102,-0.019160259515047,-0.020082095637918,-0.0057505187578499,-0.015071034431458,0.019089328125119,0.020571323111653,0.028855688869953,-0.029033940285444,0.026159670203924,-0.018985044211149,-0.027769370004535,-0.0054042809642851,0.023984033614397,-0.027036001905799,0.01841357909143,-0.015890203416348,-0.0042615938000381,-0.030415048822761,0.024348255246878,-0.0062068058177829,0.016717616468668,-0.02670850045979,-0.029327750205994,-0.023800883442163,-0.030136918649077,-0.0013959228526801,-0.005853867623955,0.022167759016156,0.026289463043213,-0.0048368209972978,0.02938212826848,0.0068866997025907,-0.010900648310781,0.0014452650211751,0.018238436430693,-0.029322117567062,-0.028732009232044,0.0094446111470461,-0.020325826480985,-0.0099124684929848,0.0031940492335707,-0.0037594602908939,0.0038023409433663,-0.02974065579474,-0.0010770231019706,-0.015221745707095,0.0014672199031338,0.029218509793282,0.014423946850002,-0.0046972958371043,-0.029701687395573,0.018824405968189,0.016560357064009,-0.025024965405464,0.010945766232908,0.029707849025726,0.029778059571981,-0.0030340901575983,-0.026571670547128,-0.015983952209353,-0.02020462974906,-0.0018091523088515,0.029515041038394,0.028560120612383,-0.011113367974758,0.013807026669383,0.017067160457373,0.013839174993336,-0.022063119336963,-0.015210025943816,-0.0040460615418851,-0.020699573680758,0.014268616214395,0.010158236138523,-0.018099002540112,-0.0072872275486588,0.027370873838663,0.021478237584233,0.019164612516761,0.017680851742625,-0.0054281842894852,0.0082954512909055,0.010806608013809,0.0006232475861907,0.019546302035451,0.018537374213338,0.013238998129964,0.031210524961352,-0.0029437625780702,0.02843870408833,0.029504548758268,0.020055981352925,0.024882730096579,-0.028069984167814,0.0062730475328863,0.0025507449172437,0.012830688618124,-0.0011408285936341,-0.0066536036320031,-0.025685422122478,-0.015540080145001,-0.028597980737686,0.025449821725488,0.0030047739855945,-0.0046699959784746,0.00091606850037351,-0.020219707861543,-0.0038301073946059,0.012469719164073,0.0043079978786409,0.022107250988483,-0.011350856162608,0.023346327245235,0.0071375505067408,-0.026385005563498,-0.014703993685544,-0.0017427301499993,-0.013798624277115,0.008917867206037,0.014294213615358,0.0081290826201439,-0.018912481144071,-0.022005055099726,0.0022711914498359,-0.0095621468499303,0.0056867352686822,0.0043920301832259,-0.027156859636307,0.0048372144810855,-0.010063446126878,-0.024826651439071,0.018984524533153,-0.011738928034902,-0.014632227830589,-0.00050844403449446,0.012038668617606,-0.028832526877522,0.021402347832918,-0.023690689355135,0.011279676109552,-0.028278348967433,0.0059471777640283,-0.014518356882036,0.00066687102662399,-0.0032198689877987,-0.030717398971319,-0.0030923646409065,0.0055369138717651,-0.0012449054047465,-0.031389821320772,-0.026095980778337,-0.01013058796525,-0.019433964043856,0.025751877576113,0.015906782820821,0.019276071339846,-0.002739786868915,0.030221534892917,-0.014164500869811,0.0089013641700149,0.018564151600003,0.015117816627026,-0.027793345972896,-0.0089974710717797,-0.025408813729882,0.030880197882652,0.027919169515371,0.0020496905781329,-0.028790986165404,-0.020612522959709,0.025127325206995,0.0065088081173599,0.026241295039654,-0.028518296778202,-0.0088393799960613,0.029829297214746,-0.005482557695359,0.030184360221028,0.028550449758768,-0.018310250714421,0.007488626986742,0.01574925519526,-0.0095124766230583,0.027062200009823,-0.0073467153124511,-0.024234026670456,0.0087953079491854,-0.0095844967290759,0.017406055703759,0.010479222051799,0.0086238952353597,-0.011672005057335,0.028299894183874,0.010811885818839,0.026335304602981,0.012613274157047,0.02527367323637,0.016358435153961,0.0012219150085002,0.0037991588469595,-0.007084745913744,0.028774263337255,-0.028338134288788,0.028551822528243,-0.0080126784741879,0.018766455352306,-0.014947631396353,-0.020539309829473,0.0045193224214017,-0.017814680933952,-0.025296073406935,-0.0055907508358359,0.011039418168366,0.014884423464537,0.0077808131463826,-0.00063833047170192,-0.014356468804181,0.0096178259700537,-0.028541147708893,-0.010360536165535,-0.013933284208179,0.026848141103983,-0.020237348973751,0.0019187977304682,-0.024843970313668,-0.027552466839552,-0.024674393236637,0.0082918563857675,-0.010685603134334,0.0040035671554506,-0.031360350549221,-0.0093322722241282,0.031067973002791,0.019684195518494,0.0075242691673338,-0.01054625492543,-0.028608754277229,-0.021335229277611,0.031307578086853,0.0061916424892843,-0.018369836732745,0.017273597419262,-0.0092312972992659,0.023823669180274,0.030941793695092,0.00093642971478403,-0.0053689465858042,-0.0021309836301953,-0.0098783625289798,0.011221579276025,0.022445758804679,-0.018491411581635,-0.0079492628574371,-0.012416009791195,-0.010557775385678,0.020223587751389,-0.010541406460106,-0.014123989269137,0.016333347186446,-0.023486867547035,-0.015347563661635,0.015268035233021,-0.016816953197122,0.020422503352165,0.01739595271647,-0.031289514154196,0.027516091242433,0.014481696300209,0.005291985347867,0.024513721466064,-0.023638399317861,0.017527516931295,0.01307625323534,0.010400314815342,-0.0077150180004537,-0.024703394621611,0.012713725678623,0.0029740501195192,-0.01368317566812,0.010531815700233,0.0293855573982,0.026029666885734,0.018555827438831,-0.030224377289414,-0.008278364315629,-0.019015938043594,0.00900455750525,0.022066604346037,0.029137454926968,0.013614012859762,-0.030582383275032,-0.027385553345084,0.022000525146723,0.015143975615501,0.016408670693636,-0.027512704953551,-0.027603093534708,0.010136059485376,0.021347990259528,-0.0087243067100644,0.031524211168289,0.003633005078882,0.0088489288464189,0.015965685248375,-0.0039336737245321,-0.0047443513758481,-0.017598213627934,-0.018697215244174,-0.0082446811720729,-0.0020543695427477,-0.014167634770274,-0.025182448327541,0.025031125172973,-0.01486546266824,-0.017452444881201,-0.023777537047863,0.017023703083396,0.0021437173709273,0.027857029810548,-0.020506946370006,0.016960164532065,-0.00022038456518203,0.010700257495046,0.00087521818932146,-0.0066651841625571,0.027844481170177,0.013185674324632,-0.0073165846988559,0.017155965790153,-0.0081035681068897,9.2476984718814e-05,-0.012891489081085,-0.030484087765217,0.0035025824327022,-0.030830211937428,0.024884773418307,0.011912694200873,-0.014423521235585,-0.0075457589700818,-0.02791784144938,0.013067035935819,-0.031028151512146,0.013536960817873,0.011051396839321,0.0068145417608321,-0.0001917437184602,0.016917975619435,-0.0018648710101843,-0.0040480815805495,0.0034076843876392,-0.024083968251944,0.0046966769732535,0.027609944343567,0.011402315460145,-0.02036427333951,-0.013559061102569,0.027538042515516,-0.0053326357156038,-0.025846995413303,0.0026123602874577,-0.0271978341043,-0.023255104199052,-0.014361009933054,-0.0097134234383702,-0.0035447285044938,0.012054085731506,-0.015381081029773,-0.016669241711497,0.025372618809342,-0.023317771032453,0.0050792586989701,0.020015265792608,0.0035347850061953,0.011663493700325,0.0048422431573272,0.031482201069593,-0.0090604415163398,-0.0033509219065309,-0.012088760733604,-0.006622152402997,-0.024890033528209,0.021868674084544,-0.026195429265499,0.015304808504879,0.030222410336137,-0.0028500244952738,-0.0016423447523266,0.0044463179074228,-0.0025585752446204,-0.005012427456677,0.0129473824054,0.010301500558853,-0.031107909977436,-0.013857778161764,0.031125390902162,0.0057812468148768,0.017958456650376,-0.006451265886426,0.018830921500921,-0.0080586457625031,0.031438231468201,0.022068236023188,0.014433580450714,-0.0088589740917087,0.010360007174313,-0.014100827276707,0.0279880464077,0.0019841031171381,0.024316228926182,0.011687274090946,-0.0013275891542435,-0.026096127927303,0.008926902897656,-0.012720826081932,0.024849224835634,0.00043747643940151,-0.022601936012506,0.031227758154273,-0.022889567539096,0.026829930022359,0.023279998451471,0.00050426443340257,0.021870195865631,0.011879306286573,-0.0015486344927922,-0.020721849054098,-0.016032448038459,0.014533685520291,0.021637165918946,0.0004513616731856,-0.01198897138238,0.029656298458576,0.01969513297081,0.016485679894686,-0.023135785013437,-0.025776846334338,-0.027010845020413,0.01848391070962,-0.022104166448116,-0.020293075591326,-0.01781702414155,0.019674252718687,0.011347874067724,0.0012189392000437,-0.0042613609693944,-0.019852951169014,0.023162866011262,0.013614323921502,0.016614625230432,-0.011543904431164,0.019960535690188,0.013329804874957,-0.025055028498173,-0.022479765117168,0.014075444079936,0.028165385127068,0.0045111440122128,0.00041523095569573,-0.011182246729732,0.027752537280321,0.029613645747304,-0.013313076458871,-0.014843930490315,0.0015757842920721,-0.025043802335858,-0.021863717585802,0.02544467523694,-0.010638848878443,-0.027086401358247,0.017748359590769,-0.011596660129726,0.018405079841614,-0.020871803164482,0.00066147465258837,0.0025734773371369,0.010677067562938,-0.0059664216823876,0.0054866573773324,-0.020285533741117,0.0065759974531829,-0.018966536968946,0.0018862931756303,-0.015712121501565,0.0085079493001103,-0.0038020124193281,0.026139782741666,-0.0032981380354613,0.021609794348478,0.021805223077536,0.031433470547199,-0.0084868781268597,-0.0083880433812737,-0.020207764580846,-0.0004359639424365,-0.016857925802469,0.019618766382337,0.014644685201347,-0.0096474317833781,0.017146475613117,0.0045974468812346,0.021996209397912,0.022727865725756,-0.029466083273292,-0.014033425599337,0.0080632651224732,-0.0018549598753452,0.0012633223086596,0.0049850670620799,-0.010083224624395,0.02989442832768,0.011457189917564,-0.022056441754103,0.0014888695441186,-0.0080377077683806,-0.0096581196412444,-0.024340368807316,2.9830336643499e-05,0.026301423087716,0.0075918305665255,-0.0294443462044,-0.026935704052448,-0.030566915869713,0.028297306969762,0.020697005093098,0.023774344474077,0.020970568060875,-0.022055502980947,-0.0056055188179016,0.024637322872877,0.029294295236468,-0.013099117204547,0.0087628522887826,0.013077297247946,0.027955483645201,0.028639793395996,-0.025097798556089,0.0049560777842999,0.021537663415074,0.027475947514176,-0.027892647311091,-0.010928671807051,0.01188625767827,-0.005107375793159,-0.01469389628619,0.028967885300517,0.018591519445181,0.029168907552958,0.027210621163249,0.0056515652686357,0.012706773355603,-0.0012783412821591,-0.017936734482646,0.0032093098852783,0.018543053418398,-0.010187326930463,0.030474543571472,0.015864731743932,-0.030446460470557,-0.021641414612532,-0.0050389734096825,0.016762636601925,-0.015137000009418,-0.00029154616640881,-0.023719759657979,-0.0042881341651082,0.017662312835455,0.02796246856451,-0.016227995976806,-0.019499441608787,-0.01158175803721,0.0018476332770661,0.020373152568936,-0.0073911398649216,0.025158312171698,0.013155361637473,-0.026529226452112,-0.030751606449485,0.023776831105351,0.013697122223675,0.022764371708035,0.02629572711885,0.02340217679739,0.0057782093062997,0.025180457159877,0.0086723156273365,-0.00500194914639,0.0094824219122529,-0.0036306527908891,-0.0064795562066138,0.016676284372807,-0.028242781758308,-0.00015752321633045,0.031504992395639,-0.0054125473834574,0.031032068654895,-0.00010003976785811,0.012553167529404,-0.016204031184316,0.00091691012494266,0.0090955924242735,0.024836670607328,0.0064027314074337,0.014763442799449,-0.001430477714166,0.006058091763407,-0.0022013420239091,-0.011751153506339,0.012012303806841,0.017345800995827,-0.021797342225909,0.0020248726941645,0.028408888727427,-0.023978438228369,0.031610775738955,0.030175421386957,-0.0079657211899757,-0.01653078943491,0.017995489761233,0.0055542038753629,0.031003315001726,-0.023158818483353,-0.030875790864229,-0.0015914754476398,0.028981016948819,-0.0064699742943048,0.014957930892706,0.0041811540722847,0.017926212400198,-0.00096534605836496,-0.0025906369555742,-0.011258077807724,-0.015532091259956,0.0045011453330517,-0.030357426032424,0.010988987050951,0.019785400480032,-0.025836085900664,0.024763097986579,0.0060800602659583,-0.016844687983394,0.016469119116664,-0.0047048842534423,0.0086311604827642,0.025055563077331,-0.0068632801994681,0.028708664700389,0.014986118301749,-0.030634667724371,-0.013914396986365,-0.027721030637622,-0.011719211935997,0.013072394765913,0.016166370362043,-0.018251428380609,-0.019278384745121,-0.023581119254231,0.031440667808056,-0.013063288293779,-0.026769740507007,-0.027392666786909,-0.012422651983798,0.019236071035266,-0.0029750487301499,-0.014552256092429,0.03004040941596,0.030100511386991,0.0056974817998707,0.015825530514121,-0.024460949003696,0.012765810824931,-0.028074393048882,-0.010970799252391,-0.0047046300023794,0.0044625266455114,0.018098831176758,-0.013698660768569,0.029734900221229,-0.030618807300925,0.01250312756747,-0.0025794813409448,-0.016344271600246,-0.0063056666404009,-0.011949230916798,-0.024142846465111,-0.0056903748773038,-0.017927685752511,0.021997017785907,-0.026496326550841,0.015449600294232,-0.024787163361907,-0.007015566341579,0.012810754589736,-0.0071393037214875,0.014306516386569,-0.0010043506044894,0.0052401218563318,0.0032966842409223,-0.031128142029047,-0.0053606783039868,0.004035753197968,-0.0074901287443936,0.023729294538498,-0.00061023997841403,0.018054682761431,-0.027715399861336,-0.030797200277448,-0.024418514221907,0.016808481886983,-0.0010928539559245,0.0022682747803628,-0.023272477090359,0.0057167774066329,0.014455479569733,-0.0014886463759467,-0.0096244728192687,-0.0091228038072586,0.028740130364895,-0.0089901816099882,-0.028396848589182,0.01218066457659,-0.024365570396185,0.018185755237937,0.018624469637871,-0.026461457833648,-0.015947338193655,-0.012784445658326,0.0022682924754918,0.012539549730718,-0.02536678314209,0.025563225150108,-0.028453478589654,-0.0079368408769369,-0.028670262545347,0.027086399495602,-0.019237412139773,-0.0045452029444277,0.020794946700335,-0.014185491017997,-0.023150403052568,0.0060229212976992,-0.017379334196448,0.028599817305803,0.0073437071405351,0.023778088390827,-0.031266998499632,-0.012186040170491,0.01237378269434,-0.0098092081025243,-0.0084410281851888,0.024549445137382,0.023702247068286,0.025993147864938,-0.012278265319765,0.029048699885607,0.022771056741476,0.00085956417024136,-0.020522670820355,0.01832277700305,-0.019645880907774,-0.030118005350232,0.020244712010026,0.0088275577872992,-0.020106485113502,-0.012497264891863,-0.0237558465451,0.027838604524732
0.0069895149208605,-0.021846182644367,-0.00531703280285,-0.018237084150314,-0.025557644665241,-0.0097108585759997,0.01123951561749,-0.030375383794308,-0.020528834313154,-0.010317317210138,-0.012780336663127,0.00341633008793,0.022698232904077,0.014930187724531,0.013427610509098,-0.012482102029026,0.011081493459642,0.0091580515727401,-0.022319557145238,0.01497245952487,-6.3095329096541e-05,-0.011631902307272,-0.019960721954703,-0.01792168430984,-0.011231762357056,0.026251915842295,-0.0012644706293941,-0.02323355525732,-0.02148856036365,-0.014885007403791,0.030968800187111,-0.0076768631115556,-0.011031152680516,-0.01659657433629,0.027260329574347,-0.010959266684949,0.016969442367554,-0.029867511242628,0.0030925001483411,-0.006837151478976,0.013415697030723,0.015939829871058,0.011519834399223,0.015522134490311,0.0057982667349279,0.024792034178972,0.021744916215539,-0.011972558684647,0.0012255273759365,-0.0012931497767568,0.022221900522709,0.00042785791447386,0.026227090507746,0.0081193614751101,0.030549377202988,-0.019115876406431,-0.020420327782631,0.016828007996082,-0.024377038702369,-0.020785182714462,-0.0091134002432227,-0.029675003141165,0.0019183807307854,-0.011866771616042,0.021504471078515,0.028002329170704,0.0094338674098253,0.025339314714074,0.031503509730101,-0.015887435525656,0.004426724743098,-0.011435570195317,-0.031108926981688,-0.0075096073560417,0.027060376480222,0.0063467137515545,0.0016055528540164,-0.015681724995375,-0.022341886535287,0.026133183389902,0.031388156116009,-0.017761001363397,-0.028392476961017,-0.0055981501936913,-0.0029455388430506,-0.0051278462633491,0.0038929877337068,-0.014779825694859,-0.016335060819983,0.010012287646532,-0.018047766759992,-0.0031273635104299,0.019494518637657,0.022297149524093,-0.012128653004766,0.022074149921536,-0.00096821232000366,-0.027775699272752,0.025357751175761,-0.015951260924339,-0.01982131972909,-0.023402433842421,0.030735667794943,-0.024441516026855,0.026679769158363,-0.0062645124271512,0.0091916648671031,-0.028446367010474,0.018072107806802,-0.024182170629501,0.0087240980938077,-0.017407014966011,0.013032065704465,0.031014749780297,-0.028964200988412,-0.02968174032867,-0.015928907319903,-0.005480797495693,-0.0070375334471464,0.0054324907250702,-0.00031042131013237,0.018997248262167,0.0078374417498708,0.0074299275875092,-0.027325700968504,-0.023101164028049,-0.023783480748534,0.0031374034006149,0.020425330847502,-0.0058548967354,0.015717850998044,-0.023557933047414,0.0094585279002786,0.0029151975177228,-0.018513649702072,-0.013693798333406,-0.018727410584688,-0.015324899926782,-0.013389860279858,-0.024853317067027,0.012588025070727,0.0064858715049922,0.027326012030244,0.030819531530142,0.013860858976841,0.014717510901392,-0.01365823391825,-0.019299950450659,-0.029007399454713,-0.023040700703859,-0.031213730573654,-0.020622091367841,0.025239873677492,0.02683424577117,0.01345494017005,0.024119047448039,0.0063236178830266,0.029002631083131,-0.014369555748999,0.0018329651793465,0.01194061525166,0.028804011642933,-0.014079193584621,-0.023416535928845,-0.0013561523519456,0.0036702225916088,0.0071830842643976,0.0075638582929969,-0.030106469988823,0.017439484596252,-0.0064892657101154,0.025310300290585,-0.015719821676612,-0.020329849794507,-0.010430647060275,-0.025546450167894,-0.0079849120229483,-0.0036300360225141,0.023793591186404,-0.015823911875486,0.0074410657398403,0.013766410760581,-0.013918807730079,-0.020347502082586,-0.0022717192769051,0.0076216221787035,0.028749901801348,0.02665408141911,-0.0020817625336349,-0.0030962044838816,-0.024362120777369,0.028529925271869,0.027049535885453,-0.030601892620325,0.0021356637589633,-0.025842288509011,0.014713776297867,0.013240307569504,0.027560614049435,0.011061022989452,0.0070880772545934,-0.021956900134683,0.029271667823195,-0.0056228269822896,-0.005358521360904,0.030774477869272,-0.00010173088958254,0.00040441667078994,-0.020115923136473,-0.00012733314360958,-0.0076889889314771,0.024359915405512,-0.018623327836394,0.013293623924255,0.0042944443412125,0.028371725231409,-0.0025194003246725,0.022545551881194,-0.0055966833606362,0.013980922289193,-0.021571626886725,0.016241550445557,-0.010134099051356,0.021195035427809,-0.0096760457381606,0.021118180826306,-0.0034412264358252,0.031548541039228,-0.0025761721190065,-0.021972768008709,0.028021344915032,0.023610267788172,0.028310067951679,0.0027925376780331,-0.0095915319398046,-0.021342121064663,-0.020930292084813,-0.0028205858543515,-0.029159927740693,-0.023918645456433,0.0036670761182904,0.020296709612012,-0.026626503095031,0.010602103546262,-0.028617979958653,0.022539598867297,-0.018417716026306,0.029750784859061,0.0018178966129199,0.0065384907647967,-0.022050429135561,0.024908138439059,0.019164487719536,0.022237662225962,0.0056061805225909,-0.0090982476249337,0.0098173543810844,-0.010206276550889,-0.0091626197099686,-0.016731360927224,0.027916576713324,-0.027081968262792,-0.022719161584973,0.030395591631532,-0.013727300800383,0.0136041874066,-0.018523866310716,-0.0067825200967491,-0.027436062693596,0.011607990600169,-0.028439057990909,-0.011112661100924,-0.018929639831185,-0.007721402682364,-0.028491709381342,0.011717741377652,0.000150090578245,-0.030573654919863,-0.006788901053369,0.02062645368278,0.015292247757316,0.020995939150453,-0.010508263483644,0.0012733018957078,0.00693717924878,-0.00072647444903851,0.021197495982051,-0.0055955019779503,0.021164821460843,-0.010961993597448,0.00056166003923863,0.031116215512156,0.017916791141033,0.023935917764902,0.0014149000635371,-0.0038825727533549,0.019149780273438,0.021321276202798,0.030280951410532,-0.022365206852555,0.017364451661706,-0.022252818569541,-0.018216826021671,-0.023828614503145,-0.013478551991284,0.021907979622483,0.02218116633594,0.01357991527766,0.024147253483534,-0.029481360688806,0.026586882770061,-0.029990900307894,-0.010849176906049,-0.011692401953042,-0.0037735505029559,0.030760060995817,-0.031562004238367,-0.010910335928202,-0.0015259160427377,-0.0044093457981944,0.022801980376244,0.0199966840446,0.011030556634068,0.017366969957948,-0.0091787204146385,0.025888884440064,0.0080997701734304,0.022842206060886,-0.021964969113469,-0.026419993489981,-0.0065353494137526,-0.013770085759461,-0.013847942464054,0.006886129733175,0.024392431601882,0.0057145128957927,-0.0058439238928258,0.013830572366714,0.016952477395535,-0.0075747594237328,-0.014281129464507,0.028416436165571,0.030494879931211,0.023439429700375,-0.014605124481022,-0.023946657776833,0.0101925926283,0.002463607583195,-0.019221574068069,-0.0020819841884077,0.030924079939723,0.00042676844168454,-0.0017929698806256,0.010605570860207,-0.011155587621033,0.011838245205581,-0.020455392077565,0.015876788645983,-0.0022629708983004,-0.012140085920691,-0.022847091779113,-0.024249451234937,0.016042768955231,0.0050584259442985,-0.0083113005384803,-0.02365262620151,-0.025579243898392,-0.023762654513121,-0.0072934059426188,0.0010061352513731,-0.025365831330419,-0.0039895954541862,-0.01590852625668,-0.027168605476618,0.0076221744529903,0.028564557433128,0.0096820825710893,0.014289463870227,-0.027294836938381,-0.023519655689597,0.022902455180883,-0.021392926573753,0.0054477462545037,0.0060469135642052,-0.018966360017657,-0.024543933570385,-0.030374202877283,0.012026563286781,-0.012352069839835,-0.021292744204402,0.0057854279875755,0.022458918392658,-0.019680833443999,0.030871637165546,0.004794065374881,0.02709411457181,0.025439355522394,-0.0022602013777941,-0.0018024181481451,-0.0053432015702128,0.010205384343863,0.022147307172418,-0.006047043018043,0.024749748408794,-0.015917673707008,-0.026627112179995,0.021643696352839,-0.025300778448582,-0.0057974802330136,0.0096612265333533,-0.012693012133241,-0.021429523825645,-0.028220539912581,0.02794012799859,-0.016295168548822,0.0054005975835025,0.016440980136395,0.017656343057752,-0.014274791814387,0.011674780398607,-0.027529189363122,0.030343426391482,-0.0065347966738045,-0.0062029459513724,0.019913917407393,-0.011539291590452,-0.011908398009837,-0.0022309327032417,-0.025127412751317,0.030743528157473,0.0083336299285293,-0.018516911193728,0.016784721985459,-0.0086376974359155,-0.02570028975606,-0.026843834668398,-0.02030605264008,0.0032395638991147,-0.022922663018107,-0.03133200481534,0.0092131365090609,-0.024670477956533,-0.023922275751829,-0.0209676977247,-0.013884696178138,-0.012863251380622,-0.02552006021142,0.03144108876586,-0.031455758959055,0.02159171551466,-0.024120781570673,0.017791036516428,0.018978638574481,0.013755125924945,0.013664045371115,0.019980128854513,-0.02871292643249,0.020748240873218,-0.00073227827670053,-0.006213067099452,0.0095492973923683,0.0029205093160272,-0.019378328695893,0.01884420402348,-0.0049848509952426,-0.030568117275834,0.013114406727254,0.022538531571627,0.031428702175617,0.028997577726841,-0.023243721574545,-0.0046635041944683,0.015703549608588,0.00066624517785385,-0.016755614429712,0.031595773994923,-0.027357548475266,0.020781127735972,0.030949601903558,0.028780426830053,-0.0060065574944019,0.017234379425645,-0.0018331119790673,-0.011617815122008,0.025491008535028,-0.014482623897493,0.028850808739662,-0.020050002261996,0.021202871575952,-0.026290934532881,0.011227313429117,-0.029794510453939,0.014323017559946,-0.02889821305871,-0.023086950182915,0.014642120338976,-0.0093017872422934,-0.028658865019679,-0.029530439525843,0.011446172371507,-0.0035298627335578,-0.010627031326294,0.0068666646257043,0.01145819760859,0.031591646373272,0.01117415074259,0.013888808898628,-0.018170226365328,0.025929318740964,0.023782851174474,-0.0083373719826341,-0.010624947026372,0.0087212827056646,0.0116992816329,0.0050436486490071,0.012641686014831,0.0035413859877735,-0.028996055945754,0.031293977051973,-0.014833545312285,0.021598348394036,-0.025173125788569,0.028244614601135,-0.017200976610184,-0.025473438203335,-0.030617443844676,0.0040374230593443,-0.0033569510560483,-0.00059039972256869,0.014122216030955,0.026295226067305,0.015711961314082,0.0092015182599425,0.023962644860148,-0.014352989383042,-0.0196463894099,-0.0018684908282012,0.013874801807106,0.023569170385599,0.021992508322001,0.028457028791308,-0.027300719171762,-0.012574648484588,0.00053497217595577,-0.021122356876731,0.022233810275793,-5.3598843805958e-05,0.030812846496701,-0.0040820995345712,0.025326585397124,0.00070171960396692,-0.0077222334221005,-0.0080505413934588,0.0039598005823791,0.027109740301967,-0.022300265729427,-0.0049108793027699,0.031370118260384,0.023793153464794,0.014686768874526,-0.0067584589123726,0.010939985513687,0.0028630015440285,0.0028652749024332,0.011045320890844,-0.029026385396719,0.019562594592571,-0.0083080986514688,0.010239993222058,0.018051123246551,-0.00086540530901402,-0.014357645995915,0.026728074997663,-0.016884353011847,-0.015469904057682,0.0016647118609399,0.021057743579149,-0.0040920940227807,-0.025528438389301,0.0029727725777775,0.031181680038571,-0.023028310388327,-0.015412158332765,-0.027184575796127,-0.0039764209650457,0.0066932886838913,-0.0086463093757629,0.021309239789844,0.0097760539501905,0.010461563244462,-0.017200198024511,0.010352456010878,0.013580147176981,-0.023196721449494,0.011838442645967,-0.019156020134687,-0.027850491926074,0.0016181236132979,-0.02849886380136,-0.011626186780632,-0.0083670364692807,0.026867629960179,-0.020680794492364,-0.010971534065902,0.02327355928719,-0.0011899307137355,-0.022789096459746,-0.029284166172147,0.027623202651739,0.026089223101735,-0.019505335018039,0.0047379205934703,-0.01275167055428,-0.022473638877273,-0.010984823107719,0.01923837326467,-0.011232757009566,-0.018012963235378,0.008936527185142,0.014064352959394,0.0257514026016,0.020944517105818,-0.0033570586238056,0.017002133652568,0.0003170290729031,0.0077881496399641,-0.014632236212492,0.003826963249594,-0.0040330532938242,-0.01147404499352,-0.008885714225471,-0.0027388806920499,0.0076622283086181,0.013900349847972,-0.0097899036481977,0.024416845291853,0.024112431332469,0.016810337081552,-0.00086522987112403,-0.0041380086913705,-0.021338021382689,-0.0050093778409064,-0.02575595676899,0.012559781782329,0.027063829824328,-0.0033605073112994,0.029836179688573,0.016441877931356,-0.0083971098065376,0.003246899927035,-0.024952601641417,0.012803274206817,0.009609448723495,0.027692964300513,-0.0069989529438317,0.019547078758478,-0.010737699456513,-0.0034098946489394,0.024061968550086,0.010848748497665,-0.015681819990277,-0.013451039791107,0.0018539170268923,-0.010687707923353,0.0040757684037089,-0.0084230834618211,-0.010397878475487,-0.028670558705926,0.015368144959211,-0.029533894732594,0.01908933185041,-0.014832828193903,0.026808001101017,-0.0050275353714824,0.0073732626624405,-0.029286857694387,0.00056227028835565,0.015307730063796,-0.018578793853521,-0.022827776148915,0.0081024672836065,0.016019774600863,0.011251950636506,0.028255583718419,-0.026020269840956,0.0017931693000719,-0.0024458754342049,0.0040861153975129,0.020594328641891,0.029260706156492,-0.0099503891542554,0.017215767875314,0.03083498775959,0.022472681477666,0.0049117975868285,-0.008822675794363,-5.4203166655498e-05,0.012971516698599,-0.010474572889507,-0.015850223600864,-0.016542494297028,-0.0064407335594296,-0.015882041305304,-0.015339287929237,0.00032622544676997,-0.025065124034882,0.012325035408139,-0.0063540050759912,-0.013640192337334,-0.0079313209280372,0.0037079392932355,0.026403458788991,-0.014409874565899,0.0046283439733088,-0.0074796574190259,-0.022997574880719,0.024318061769009,0.0125148948282,0.019411999732256,-0.030985899269581,0.023777350783348,-0.006602386943996,0.0024450276978314,-0.0101612303406,0.018084550276399,0.016438122838736,-0.024081854149699,-0.029852826148272,0.010165698826313,0.029729623347521,0.010821749456227,0.024674922227859,0.025120986625552,-0.0073902066797018,-0.021237155422568,0.02800571359694,-0.020471408963203,0.019164962694049,-0.0083736982196569,0.020353510975838,0.014108700677752,-0.0017831241711974,0.025400895625353,0.0051617468707263,-0.00084215454990044,0.016157921403646,-0.020943900570273,-0.015921978279948,-0.00670330459252,-0.029544230550528,-0.022221894934773,-0.021823197603226,0.013516794890165,0.0080661298707128,0.018388468772173,0.014753251336515,-0.014652439393103,-0.0020696609281003,0.025899842381477,-0.012018743902445,0.012858997099102,-0.0077112917788327,0.0022322642616928,0.024179518222809,0.0021003694273531,-0.02842129021883,0.028349848464131,0.0038264077156782,-0.015904324129224,-0.01114109903574,-0.0054867314174771,-0.013427526690066,0.017737228423357,0.010801355354488,-0.026002194732428,-0.021239971742034,0.014090202748775,-0.014156016521156,-0.022313417866826,0.02895481325686,0.0056493310257792,-0.011019377037883,-0.027659978717566,-0.017178824171424,0.012184206396341,0.028297774493694,-0.020263183861971,0.0024197869934142,0.010606277734041,0.012996597215533,0.019995808601379,-0.015138159506023,0.013382459059358,0.0031593248713762,-0.021465992555022,0.030040606856346,-0.014272128231823,0.0030041655991226,-0.027401741594076,-0.022027404978871,-0.0008886243449524,-0.0098107540979981,-0.029464207589626,-0.0048679965548217,-0.022003149613738,-0.025909589603543,-0.0023512481711805,-0.0029259361326694,0.028433790430427,-0.004225461743772,0.00089658383512869,-0.016684638336301,0.02118025533855,-0.0091433608904481,-0.016433155164123,0.02151089720428,0.031542826443911,-0.010106615722179,0.028059219941497,0.022502720355988,-0.024456690996885,0.028762167319655,-0.0017056310316548,-0.015740683302283,-0.008006764575839,0.011707530356944,-0.015594110824168,-0.0066788839176297,0.022242426872253,0.024391995742917,-0.020504578948021,-0.0061382059939206,-0.020094407722354,0.030734745785594,0.018659153953195,0.023445626720786,-0.001199851045385,0.013212612830102,-0.027283782139421,-0.026813693344593,0.020599732175469,-0.030240301042795,-0.022266069427133,-0.017681207507849,-0.0037814858369529,0.023586481809616,0.0090683195739985,0.027313504368067,-0.016446029767394,-0.022965837270021,0.0045020678080618,0.018417133018374,0.0081846928223968,-0.01921221613884,-0.025734320282936,-0.015619403682649,-0.030224038287997,0.011768449097872,-0.006873382255435,-0.02593032643199,-0.016329448670149,0.0036328134592623,0.015792103484273,0.018958322703838,-0.025439042598009,0.016875728964806,-0.028480794280767,0.0069880760274827,-0.010652269236743,0.022189347073436,0.012466751970351,-0.011503324843943,-0.0049024107865989,-0.015412757173181,-0.003351048566401,-0.0030211475677788,-1.2628302101803e-05,0.026282137259841,0.0051479707472026,0.019829761236906,0.0082802707329392,-0.013940564356744,-0.0081644961610436,0.029827935621142,0.024565504863858,0.021221190690994,-0.012877747416496,0.023833243176341,0.020577814429998,0.024336954578757,-0.026332231238484,-0.014656780287623,0.019480429589748,0.013384635560215,0.0057982336729765,-0.027153708040714,0.016430031508207,0.025147220119834,-0.023668576031923,-0.030099047347903,-0.01751597225666,-0.016051260754466,0.031492695212364,0.01920872181654,-0.0021087371278554,0.0012070122174919,0.01516945194453,0.0276168435812,-0.0020858363714069,-0.013173501938581,-0.011153675615788,-0.0033934211824089,-0.019997648894787,-0.01592081040144,0.031413972377777,0.013440879061818,0.0097311642020941,0.022268615663052,0.028494983911514,-0.025102769955993,0.01678017154336,0.025605523958802,0.030237093567848,-0.017505707219243,-0.022577490657568,0.0025476249866188,-0.030109820887446,0.0037238444201648,-0.013056144118309,0.0091078858822584,0.0099389348179102,0.02333783172071,-0.021331515163183,-0.014080233871937,-0.016084304079413,-0.020956926047802,0.020726574584842,0.0081382328644395,0.028732091188431,0.0067452783696353,-0.022948540747166,-0.025574937462807,0.0022271911147982,0.025768164545298,-0.00052693107863888,0.0088210320100188,0.018316734582186,0.026105724275112,-0.02502853795886,0.0072697433643043,0.010153497569263,-0.016553077846766,-0.031196469441056,-0.017459563910961,0.010195609182119,-0.020949199795723,-0.016805835068226,-0.028337564319372,0.025681992992759,-0.026976717635989,0.030832935124636,0.010108183138072,0.018250055611134,-0.0061808442696929,-0.0059045166708529,-0.0097894864156842,0.013523140922189,0.029256330803037,-0.022004880011082,-0.0054298569448292,-0.0098616741597652,-0.004654208663851,0.022603586316109,-0.029594199731946,-0.0077238427475095,0.016908150166273,0.021681111305952,-0.017968161031604,0.0025053282734007,0.0044668619520962,-0.027366479858756,-0.0096110971644521,0.0076248021796346,-0.0064010368660092,-0.016524581238627,-0.001571387401782,0.015084388665855,-0.0067676096223295,-0.00078698084689677,-0.0064735081978142,0.016835149377584,-0.00030849277391098,0.026810012757778,-0.027812363579869,-0.027918346226215,-0.012866004370153,-0.016648417338729,-0.005921614356339,-0.03097784332931,-0.0081939771771431
-0.012709806673229,-0.0084978751838207,-0.009107356891036,-0.016351025551558,-0.0072510452009737,-0.02297736890614,0.017184268683195,-0.015077444724739,0.010506959632039,0.0083112893626094,-0.0075543220154941,0.031261522322893,-0.009988272562623,0.0091094672679901,0.011811399832368,0.020781066268682,-0.020048163831234,0.016121082007885,0.023015381768346,-0.014984206296504,-0.0054939300753176,0.0055546020157635,-0.01293686311692,-0.0082865413278341,-0.0022003878839314,0.022048538550735,-0.021826324984431,0.026680171489716,0.02717431075871,-0.01294950582087,-0.0055019385181367,-0.01515619084239,0.0011095548979938,0.016855383291841,-0.011288518086076,-0.0037707171868533,-0.017952112480998,0.0089523065835238,-0.017705921083689,-0.00085246504750103,0.0063670766539872,0.0012060354929417,-0.026700565591455,0.026825770735741,0.019803270697594,-0.011497939005494,0.0058199926279485,-0.031520258635283,0.009025807492435,0.017662024125457,-0.020181311294436,0.015156274661422,-0.025111513212323,-0.02655684761703,-0.011198163032532,0.031226282939315,-0.023890063166618,0.00068346626358107,-0.0076602213084698,0.0044988044537604,0.013215147890151,-0.015086997300386,-0.014116069301963,-0.01725329272449,0.00020461500389501,-0.018566127866507,0.023792751133442,0.0022239740937948,0.0034111870918423,-0.021442981436849,0.023099314421415,-0.019832583144307,0.023858547210693,-0.020940955728292,-0.015355126000941,0.024918036535382,-0.030512098222971,0.027925152331591,-0.00089985079830512,-0.025116262957454,-0.017562827095389,0.012919743545353,0.02082353271544,0.021605649963021,-0.021303562447429,0.020620500668883,-0.0098139187321067,-0.029431074857712,-0.0081292018294334,-0.020294338464737,0.023838071152568,0.021735314279795,-0.0028703280258924,-0.019721956923604,-0.0078642070293427,-0.008436368778348,0.0084758326411247,0.012314824387431,0.0028803201857954,0.0019702883437276,-0.0069065429270267,0.010151667520404,0.019808927550912,0.0090285642072558,0.02047274261713,0.028596635907888,0.019296940416098,0.01165266148746,-0.0057348576374352,0.0064321770332754,-0.031242243945599,0.015357034280896,-0.013220249675214,0.0077343415468931,9.0558685769793e-05,0.010192888788879,-0.012453820556402,-0.017972325906157,-0.0073889852501452,0.022715173661709,-0.0080091198906302,0.02930280379951,0.013841439038515,0.0069860760122538,0.015310949645936,-0.013499234803021,-0.0073963846080005,-0.0260124001652,-0.031091194599867,0.010639148764312,-3.951990584028e-05,0.029291329905391,-0.019360089674592,0.018000958487391,0.023834580555558,0.014204129576683,-0.031244354322553,-0.0031283472198993,0.028321210294962,0.030131665989757,0.022403858602047,0.0029854767490178,-0.0041695800609887,0.021396698430181,-0.015159195289016,-0.0026281615719199,-0.015868285670877,0.017029739916325,0.014163166284561,-0.0048554688692093,0.0098789669573307,-0.013348725624382,-0.030445257201791,0.024338323622942,0.023509388789535,-0.027006896212697,0.0081818616017699,0.01799126341939,0.0068729408085346,-0.018519062548876,-0.02769635617733,-0.026233170181513,-0.0080800522118807,-0.012346491217613,0.023308290168643,-0.028964793309569,-0.018451895564795,-0.00060450995806605,-0.0019565641414374,0.01002607960254,0.015657505020499,0.021061209961772,0.022430878132582,0.0027998944278806,0.0071012694388628,0.030843714252114,-0.021460199728608,-0.015257582068443,-0.0062130531296134,-0.028944101184607,-0.0095152445137501,0.0033363290131092,0.012083635665476,0.017873700708151,0.025650102645159,-0.029940025880933,0.02679855376482,-0.027528986334801,0.021031975746155,0.020989852026105,0.01720499061048,0.0072254650294781,-0.019306758418679,0.024413207545877,0.015006292611361,0.02510148473084,0.0023950913455337,-0.0031353372614831,0.019234200939536,0.0047130985185504,0.008438354358077,0.0051763309165835,0.0086320731788874,-0.013458272442222,-0.02263942360878,0.020327664911747,0.02426247857511,-0.0030713484156877,-0.0032511923927814,-0.027246102690697,-0.030549889430404,0.027945127338171,-0.010924182832241,0.021842088550329,-0.011097444221377,0.029142672196031,0.027751412242651,0.018944846466184,-0.020214891061187,0.01315737888217,0.024544475600123,-0.003873486770317,-0.0010887669632211,-0.025625651702285,0.019742732867599,0.024726329371333,0.021818239241838,0.017930621281266,0.014684077352285,0.00052836176473647,-0.010474922135472,0.025122068822384,0.030812636017799,-0.027381289750338,-0.013550920411944,0.011133309453726,-0.031137334182858,0.00019482015341055,0.027169672772288,0.012112768366933,0.029317557811737,-0.005718422587961,0.0040222997777164,-0.014950161799788,0.017110669985414,-0.0095766177400947,-0.022035986185074,0.028109541162848,0.02332442253828,0.021697765216231,-0.0054614748805761,0.0046843173913658,0.012642566114664,-0.021394705399871,-0.01448215264827,0.013026970438659,-0.012415051460266,0.020217252895236,0.0036634325515479,-0.0064266119152308,0.027987785637379,-0.019952032715082,-0.0083074877038598,-0.010867354460061,0.0089520653709769,-0.020152939483523,0.030963281169534,-0.021662414073944,-0.0044440617784858,0.014598306268454,-0.027394102886319,0.02156020514667,-0.013947397470474,-0.021969316527247,-0.029313895851374,-0.0033538211137056,0.0019012977136299,0.0015925876796246,0.0029512776527554,-0.0037844525650144,0.029576728120446,0.015960389748216,-0.0057323728688061,0.011214033700526,0.013708124868572,-0.027220577001572,-0.025577049702406,-0.023694898933172,0.027804087847471,-0.0068140677176416,-0.00010929434938589,-0.027661755681038,0.0056080804206431,-0.019715154543519,0.011534726247191,-0.0087114926427603,-0.024549908936024,-0.0038072858005762,0.013588357716799,0.026718717068434,-0.0056851804256439,-0.024280792102218,0.012239610776305,0.013467438519001,-0.019457103684545,0.020969795063138,0.018028052523732,0.029837980866432,0.010407831519842,0.014633419923484,-0.0013094815658405,-0.0012759645469487,0.0013138297945261,-0.010966094210744,-0.027705986052752,0.00076092896051705,-0.0098800482228398,0.019329100847244,-0.023101858794689,0.019530460238457,-0.010810371488333,0.016210420057178,0.017490524798632,0.026674799621105,0.027981227263808,0.027879318222404,-0.018153809010983,0.030940802767873,-0.029537925496697,0.027251353487372,-0.014082988724113,0.02318730391562,-0.01001688465476,0.013066193088889,0.029356494545937,0.031613811850548,-0.021141681820154,0.02460384555161,-0.021470250561833,0.016771482303739,-0.0046681719832122,0.018315695226192,-0.030425928533077,0.028041802346706,0.013932515867054,0.013877303339541,0.011907612904906,0.015206064097583,-0.00041025955579244,0.031016865745187,0.0044768988154829,-0.030585587024689,-0.016158873215318,0.0068493792787194,0.028319889679551,-0.017289556562901,-0.0017779867630452,-0.024527456611395,-0.021660109981894,0.014769463799894,0.027496967464685,-0.0019328676862642,-0.021935503929853,-0.030598741024733,-0.024193275719881,-0.010773399844766,0.0014245294732973,0.028583010658622,0.023740701377392,0.0015752512263134,-0.0090529229491949,0.0090915858745575,-0.00066720671020448,0.023636585101485,-0.00046887114876881,-0.022397493943572,-0.0039436728693545,0.0022149661090225,0.025457037612796,-0.02585513330996,0.018464408814907,-0.030898911878467,-0.0031409242656082,0.030401233583689,0.025938829407096,-0.0077140885405242,-0.0080339163541794,-0.012240826152265,-0.017768729478121,0.0075845033861697,0.015322256833315,-0.0053175888024271,-0.020382160320878,-0.015531925484538,0.017955658957362,0.01927580870688,0.029607888311148,0.0026220127474517,0.02386762201786,-0.019265858456492,0.0026752818375826,-0.0011873948387802,-0.027193002402782,-0.018582480028272,0.029536200687289,-0.01205167081207,-0.0010624575661495,-0.029640639200807,0.030545054003596,0.0029062535613775,-0.026541406288743,-0.01915911398828,-0.028841696679592,0.012794991955161,-0.031450785696507,-0.0066529111936688,0.0049885404296219,0.027540663257241,0.014747375622392,-0.0076356050558388,0.019935974851251,-0.025774769484997,-0.008685159496963,-0.010276280343533,-0.013048124499619,-0.028568780049682,0.0024998153094202,-0.021675236523151,-0.028094250708818,-0.031479213386774,0.02135905995965,-0.0047363704070449,-0.020203728228807,0.0024011344648898,-0.025635255500674,0.017986044287682,-0.031518213450909,-0.027744540944695,0.017746713012457,0.02366915345192,-0.018628070130944,-0.031013175845146,0.010756491683424,0.018807925283909,0.0020714136771858,-0.0058343508280814,0.0065875947475433,-0.029698811471462,-0.0035636825487018,0.012879286892712,0.014982478693128,0.011107894591987,-0.0011542446445674,-0.0035457795020193,0.020229514688253,0.010418388061225,0.00016608928854112,-0.017685553058982,0.028775250539184,0.030002575367689,0.016845691949129,0.01361991930753,-0.016966300085187,0.0048307129181921,-0.00092612759908661,0.013946337625384,-0.029039267450571,-0.030519453808665,0.014612187631428,0.0016218444798142,-0.025390647351742,-0.012578984722495,0.009794557467103,-0.015282304026186,0.025398440659046,-0.017934460192919,0.018238104879856,0.0086582442745566,0.017051020637155,0.0081589166074991,-0.025084486231208,-0.0050510349683464,0.014776485972106,-0.0040144301019609,-0.0063203400932252,-0.028209313750267,-0.025190062820911,0.018263032659888,0.018803739920259,-0.025965204462409,0.030461775138974,0.019218418747187,0.0095387296751142,0.030097093433142,-0.029025146737695,0.017903590574861,0.011840236373246,-0.02294484898448,0.013499698601663,0.0080196829512715,0.023643458262086,-0.0072444542311132,0.016638807952404,-0.027913900092244,0.0063683707267046,0.014094945974648,-0.0270358286798,0.013188612647355,0.010574539192021,-0.023185798898339,0.0062149511650205,0.019844068214297,0.021134953945875,-0.012944913469255,0.013147881254554,0.02408441901207,-0.0081690195947886,-0.025681771337986,-0.015150819905102,-0.0081882560625672,0.027070321142673,0.027797795832157,0.01455823238939,0.024875042960048,-0.023008830845356,0.0023740218020976,0.022810336202383,0.013686675578356,-0.016728023067117,0.014921541325748,-0.023416772484779,-0.010567298159003,0.0078104152344167,0.013999493792653,-0.014927132986486,-0.031148053705692,0.0028597265481949,-0.030252384021878,-0.022513899952173,-0.015401921235025,-0.021552545949817,-0.0025660658720881,0.025665694847703,-0.011233618482947,0.011172207072377,-0.018582860007882,0.020732125267386,0.015113359317183,0.012895827181637,0.00038566172588617,0.03081052750349,-0.023068903014064,-0.0083633298054338,-0.027105992659926,0.022891204804182,-0.027420442551374,-0.020287940278649,0.01507044583559,-0.02484985627234,-0.0088128047063947,-0.024271957576275,-0.004337411839515,-0.023515090346336,0.00092593586305156,0.0087607083842158,0.010807231068611,-0.010331050492823,-0.030481792986393,-0.014604733325541,-0.01729222945869,-0.012576915323734,-0.011938800103962,0.012699037790298,-0.014914806932211,-0.029325721785426,0.00057764281518757,-0.024377970024943,0.0131861185655,0.018587458878756,0.0092150205746293,-0.018810603767633,-0.022022239863873,0.023358222097158,-0.00024381901312154,-0.005621527787298,-0.030871536582708,0.025234386324883,0.018996341153979,-0.0053821387700737,0.028967708349228,-0.0019210248719901,0.011153663508594,-0.0065214266069233,0.031219199299812,-0.030845537781715,0.0022271582856774,0.02236257866025,0.013772981241345,0.017567379400134,-0.029564436525106,0.024080438539386,-0.0151995299384,-0.0087694395333529,-0.030724681913853,-0.013979311101139,-0.013409904204309,-0.0079284636303782,-0.0023745668586344,0.012247886508703,0.01677823998034,-0.0093792034313083,0.012993643991649,0.0027692760340869,-0.015116691589355,0.005171884316951,5.1209262892371e-05,-0.028036987408996,-0.029032459482551,-0.0011894366471097,0.013963590376079,0.028171177953482,0.0053437296301126,-0.0014057506341487,-0.011969077400863,0.029355816543102,0.0024002681020647,0.0044950703158975,0.0082068592309952,0.0095135569572449,0.011011248454452,-0.011456936597824,-0.028745451942086,0.0094752917066216,0.010446065105498,0.012485738843679,-0.014777862466872,0.017142925411463,0.018398053944111,0.016683124005795,0.023577379062772,0.026641981676221,-0.022506825625896,0.018594553694129,-0.00093843869399279,0.023296326398849,0.031170232221484,-0.0061705564148724,-0.01734153367579,-0.024450685828924,0.025584522634745,-0.020654590800405,0.030316427350044,-0.018306693062186,-0.016521019861102,0.026628512889147,-0.014974092133343,-0.010666608810425,0.014445012435317,-0.0090654138475657,-0.023207172751427,-0.001515191863291,-0.022742662578821,0.0079615330323577,0.029871135950089,0.029147349298,-0.0045159384608269,0.026581583544612,0.011824460700154,0.0030740867368877,-0.024644494056702,-0.014054414816201,0.027939859777689,0.0042154160328209,0.026935515925288,-0.01927930675447,-0.016960127279162,-0.0103525724262,0.019692035391927,-0.011971521191299,-0.023290580138564,-0.023142345249653,0.0084307454526424,0.0085614509880543,-0.026451056823134,-0.013342170976102,-0.00090855202870443,-0.010569661855698,0.0055901501327753,-0.00072592147625983,-0.026682520285249,-0.020277608186007,0.0050799152813852,0.020666357129812,-0.02862124145031,-0.030256170779467,-0.020951459184289,-0.0304114818573,0.023410018533468,0.0040575754828751,-0.027022996917367,-0.0037191777955741,-0.010186039842665,-0.028179571032524,-0.013114457949996,-0.0039111115038395,-0.030757572501898,0.0057702860794961,0.025249499827623,-0.013207929208875,-0.0087575176730752,-0.027342278510332,0.019274268299341,0.00045779036008753,0.00061383633874357,-0.030639952048659,-0.024577878415585,-0.00048753863666207,0.029814140871167,0.012022134847939,-0.0019908733665943,0.028715403750539,0.024821050465107,-0.025850921869278,-0.0078664645552635,0.020475389435887,0.031513322144747,0.013638169504702,-0.014899740926921,0.016910785809159,0.0068732807412744,0.0065424107015133,-0.0075988410972059,-0.03042539767921,-0.023196935653687,-0.016323644667864,-0.019968559965491,0.025541644543409,0.0029110440518707,-0.0032696246635169,-0.024573234841228,-0.014514996670187,-0.0033033066429198,0.0068492954596877,0.022591276094317,0.02366654202342,-0.010937032289803,0.020020654425025,-0.028121041134,-0.014575478620827,0.019873477518559,0.021715978160501,-0.0068850065581501,0.0083944257348776,0.025420987978578,-0.0011637250427157,0.02264130115509,0.022758373990655,-0.0081635424867272,0.0040825088508427,0.028648816049099,0.009821018204093,-0.011988476850092,-0.012527036480606,-0.01998720318079,0.026846693828702,0.0049766669981182,0.031008511781693,-0.012215984985232,0.0023280105087906,0.018552232533693,0.0068639968521893,-0.0037668300792575,0.02404354326427,-0.010921359993517,0.025745777413249,0.017958329990506,-0.016211278736591,0.0023567681200802,0.01219002250582,-0.027830213308334,0.010838854126632,-0.028214024379849,0.0025020192842931,3.8943358049437e-06,-0.0092203207314014,0.013102202676237,0.025294434279203,-0.0060486225411296,0.00036689874832518,0.022320333868265,0.025324113667011,0.013699101284146,0.024262795224786,0.013401999138296,0.016295524314046,-0.0017379516502842,-0.010724877007306,-0.0015983120538294,0.013059181161225,0.0066725891083479,-0.026862474158406,0.0249281860888,0.029118809849024,0.01686923392117,-0.018266819417477,-0.024587586522102,0.012711287476122,0.020767947658896,-0.030593458563089,-0.013741755858064,-0.0027414858341217,0.030375678092241,-0.030004130676389,0.030089573934674,-0.024151621386409,-0.028674807399511,0.013380815275013,-0.025087492540479,-0.020005568861961,-0.0049083908088505,-0.030219603329897,-0.028684124350548,0.0078899338841438,0.008972973562777,-0.012085294350982,0.0024905414320529,-0.015031871385872,-0.001801228732802,-0.018054563552141,-0.012414092198014,-0.030741600319743,0.019204890355468,-0.0098337037488818,0.00020711866091006,0.0018499615835026,0.027057999745011,0.02537127956748,0.014561102725565,0.020318290218711,-0.026622207835317,-0.0209616497159,0.017918376252055,0.029671955853701,-0.01842961832881,0.029844654724002,0.014172754250467,-0.026989083737135,-0.018998742103577,0.0067214989103377,0.012075003236532,-0.0054577658884227,0.0034604568500072,0.020758729428053,0.015368605032563,0.0046858959831297,-0.004007937386632,-0.012006646022201,-0.0043948260135949,0.012322117574513,-0.015235264785588,-0.026948405429721,-0.020566234365106,-0.0073647755198181,0.004325810354203,0.0039487439207733,-0.018929149955511,-0.024400161579251,0.011450475081801,0.017962059006095,-0.026727002114058,-0.00032869496499188,0.0183328948915,0.015881387516856,-0.026843415573239,-0.0052226963452995,-0.026734473183751,-0.004208224825561,0.011153128929436,-0.012036684900522,0.023833878338337,0.014564277604222,0.022481299936771,-0.00053839985048398,-0.027648521587253,0.021252617239952,-0.031161146238446,-0.019433787092566,-0.024148805066943,-0.025170244276524,0.010128248482943,0.017783146351576,-0.027850437909365,-0.011858583427966,0.027179500088096,0.0021334004122764,-0.0047797015868127,0.028647156432271,-0.015250204131007,0.003086676588282,-0.023425811901689,0.0079368073493242,-0.017902072519064,0.01897238008678,-0.004166828468442,0.011985375545919,-0.00046199161442928,0.0043876371346414,-0.0085964165627956,-0.011995238251984,-0.0069521036930382,-0.0303208027035,0.026231961324811,-0.01602029800415,-0.013098586350679,-0.0094056725502014,0.0032324087806046,-0.025399850681424,-0.016837475821376,0.031021822243929,-0.026387227699161,0.0042636790312827,0.0099822403863072,-0.026566587388515,0.017246495932341,-0.024108674377203,0.0097241206094623,-0.015863232314587,0.028045881539583,0.011909798718989,-0.0020731056574732,-0.011783597059548,0.011872144415975,0.010290849022567,-0.018803806975484,-0.031150693073869,-0.004640229512006,-0.019370932132006,0.02326662093401,-0.026714079082012,-0.027678409591317,0.02098492346704,0.020400181412697,-0.018080573529005,-0.023698352277279,0.002053425880149,0.0099698584526777,0.012304519303143,-0.026414576917887,-0.012020678259432,-0.029434707015753,0.0044695432297885,-0.014832962304354,-0.0058002290315926,0.021757699549198,-0.0040455623529851,-0.0099694011732936,0.01682355441153,-0.0012430211063474,-0.0017494462663308,0.001473359297961,0.01998652331531,0.022087933495641,0.00071540317730978,-0.021206226199865,-0.026805834844708,-0.027610911056399,-0.015357476659119,-0.02090360224247,-0.017192719504237,-0.030240779742599,-0.027651214972138,-0.021994909271598,-0.0018643155926839,-0.014813866466284,-0.020864725112915,-0.017888557165861,0.0080381352454424,-0.030803825706244,-0.024523058906198,-0.014211378060281,-0.0263557638973,0.012462683953345,0.00029179692501202,0.013238158077002,0.01197587326169,-0.024875504896045,0.029082838445902,-0.0034553408622742,-0.0066356216557324,0.028456531465054,0.020706778392196,0.020271131768823,-0.023156447336078,-0.02386537194252,0.021499978378415,0.027331855148077,0.021018007770181,-0.00060557801043615,-0.0071383789181709,-0.0044423155486584
-0.012290154583752,0.011868998408318,-0.012182092294097,-0.00037772234645672,0.018708854913712,-0.0096022048965096,0.028202949091792,-0.028643343597651,0.022750558331609,0.0035020771902055,-0.027903927490115,0.0056972885504365,-0.015891807153821,-0.023551002144814,0.0064185312949121,-0.013977907598019,0.0064837476238608,0.011181122623384,-0.00014651509991381,0.024181490764022,0.00037573321606033,-0.026883939281106,-0.0044702948071063,-0.027217114344239,-0.027644000947475,-0.001701331930235,-0.023369232192636,0.0077439337037504,0.026663642376661,-0.001634330721572,-0.0056184036657214,-0.009339015930891,-0.010367097333074,0.030780164524913,-0.0068120197393,-0.024245131760836,-0.0089782122522593,0.0016353731043637,0.0024428984615952,-0.00041292756213807,-0.0065794149413705,0.024711191654205,-0.0025714496150613,0.005724691785872,-0.02520270831883,0.0049374643713236,-0.0056248982436955,0.024622932076454,-0.0075236861594021,0.020824234932661,-0.021864846348763,0.0082695726305246,0.015846101567149,-0.0097852880135179,-0.015400140546262,0.015373035334051,-0.001745818182826,-0.0041291429661214,0.0014684579800814,0.0031856133136898,-0.0043575069867074,0.009827358648181,0.016046250239015,0.020968427881598,-0.013779123313725,0.0034047183580697,-0.017472099512815,-0.025726649910212,0.0029725709464401,0.0043179937638342,0.00033791663008742,0.013186283409595,0.028842024505138,0.022498723119497,0.0033205733634531,0.023597322404385,0.018712488934398,-0.0038341023027897,-0.028685495257378,-0.0098413852974772,0.019343500956893,-0.018899943679571,-0.026560377329588,-0.0297711789608,-0.024470247328281,-0.026386611163616,0.024724531918764,-0.026593076065183,-0.0083292154595256,-0.025247905403376,-0.0076668965630233,-0.016337396577001,0.0023304705973715,0.013495568186045,-0.024018486961722,0.0093117794021964,2.6363642973593e-05,-0.0059823747724295,-0.027859324589372,0.009835371747613,0.030065458267927,-0.030724668875337,0.0034734949003905,0.029365720227361,0.02804909273982,-0.0031702921260148,0.013338891789317,0.027002787217498,0.0055637378245592,0.0095255114138126,-0.013865940272808,0.011538684368134,-0.016663799062371,-0.019814612343907,-0.021936748176813,-0.021735509857535,-0.016467558220029,0.024056602269411,-0.012940155342221,0.0025863952469081,0.013991018757224,0.012243735603988,-0.016787653788924,0.02424118667841,0.0047944998368621,-0.015205213800073,-0.023419236764312,0.018747597932816,0.0014902114635333,0.023628210648894,-0.0042398879304528,0.017572946846485,0.031527314335108,-0.0010416846489534,-0.022215280681849,-0.027181165292859,-0.020673336461186,0.018823321908712,0.03084877692163,0.012189175933599,0.016447879374027,0.0092962747439742,0.030897531658411,-0.030873516574502,0.0093104979023337,-0.026450732722878,-0.01402054540813,0.02201484143734,-0.0095927380025387,-0.010864713229239,-0.017536666244268,-0.021058013662696,-0.017566759139299,0.029973838478327,-0.0094919297844172,-0.02958750538528,-0.015579912811518,-0.024010555818677,-0.011320971883833,0.029046222567558,0.016965642571449,0.015785725787282,0.024627259001136,-0.0066111125051975,-0.0048533035442233,0.0057289754040539,-0.023859672248363,0.022818835452199,-0.011532264761627,-0.018987646326423,-0.027651146054268,0.0066548017784953,0.014603321440518,0.013767078518867,-0.02972318045795,-0.01838618144393,0.013331377878785,0.029625842347741,0.00055893848184496,0.027509104460478,0.0076523711904883,0.020404851064086,0.0030912540387362,-0.016981866210699,-0.020054470747709,0.0018112129764631,0.0069080465473235,0.0042989668436348,-0.022388178855181,0.010673506185412,-0.013230057433248,0.028014352545142,0.0050779865123332,-0.030401429161429,-0.0051730433478951,0.022029517218471,0.009576846845448,0.012501645833254,0.0054852375760674,-0.014905552379787,0.023072693496943,0.031467240303755,0.013859088532627,0.0079227341338992,0.018444690853357,-0.0089599704369903,-0.011787517927587,-0.017862109467387,-0.030890261754394,-0.010059304535389,0.0087173227220774,-0.026816004887223,0.031411293894053,-0.0072183073498309,-0.018141245469451,0.0099453423172235,0.0099692204967141,-0.0028434437699616,-0.019369281828403,0.022034723311663,-0.0050085741095245,-0.0059345369227231,-0.0093485787510872,-0.010390271432698,-0.029204912483692,-0.021436983719468,0.019382368773222,0.0054074577055871,0.0044825957156718,0.010794759728014,-0.01591482013464,-0.0028941528871655,0.0057170842774212,0.026904964819551,0.0071100569330156,0.014664576388896,0.012863208539784,-0.0075907581485808,0.0010682347929105,0.012234007008374,0.024929055944085,-0.010029125027359,0.023974396288395,-0.031262241303921,-0.022039232775569,-0.0022063562646508,0.0019028140231967,0.019113089889288,0.024946946650743,-0.011233154684305,-0.0040263710543513,-0.0034105281811208,-0.014835531823337,0.029224125668406,0.023693613708019,-0.029692081734538,-0.024498092010617,-0.0074387486092746,0.021249566227198,0.011466325260699,0.019986849278212,-0.0075971037149429,-0.013428640551865,0.023985156789422,-0.027198577299714,-0.0093947304412723,0.028768118470907,0.028624849393964,-0.0012913976097479,0.010075294412673,0.0085506234318018,0.024842558428645,-0.025052746757865,-0.015972310677171,-0.014862890355289,0.00085929461056367,-0.016903990879655,-0.0049275713972747,-0.0077534639276564,-0.018392574042082,0.014260138384998,0.0083543015643954,0.0076609551906586,-0.014359310269356,-0.0053162383846939,0.023733418434858,-0.030806232243776,-0.025204567238688,-0.009038258343935,0.02463310956955,0.016329875215888,-0.010952400974929,-0.018909009173512,-0.020512798801064,0.0037035739514977,-0.0012542509939522,0.0048441612161696,-0.0037145209498703,0.022016819566488,0.010557998903096,0.025150813162327,0.024131113663316,0.028514016419649,0.026509866118431,0.024403434246778,0.017724122852087,0.0023841010406613,-0.015616818331182,0.010974883101881,0.028558570891619,0.0011581601575017,0.01765550673008,0.031474597752094,0.029080895707011,-0.024348409846425,-0.026336787268519,-0.0091641219332814,-0.022392984479666,-0.025458509102464,0.015104843303561,-0.03053505346179,0.0084426533430815,0.023372871801257,0.013253081589937,0.026902111247182,-0.027134917676449,0.021127035841346,0.017720524221659,0.00092895509442315,0.028920862823725,0.0028184975963086,0.015955794602633,-0.010538007132709,0.022141616791487,-0.012417355552316,0.0069884452968836,0.022300347685814,0.0088603850454092,-0.010773830115795,0.025919828563929,-0.027130207046866,0.028279701247811,0.0055865999311209,-0.017412975430489,0.021166613325477,0.023065492510796,0.017005437985063,-0.010486922226846,-0.020994113758206,0.0073579433374107,-0.020089251920581,0.02797269821167,0.0050465282984078,0.014801472425461,-0.020400075241923,0.019724868237972,-0.029689425602555,0.028713598847389,-0.028113270178437,-0.01395345851779,-0.028911149129272,0.022530851885676,-0.025393465533853,-0.0075831515714526,0.020973617210984,0.019193826243281,-0.0044727995991707,-0.00487264059484,0.0080115022137761,-0.026507055386901,0.006988326087594,0.025421781465411,-0.0015028198249638,-0.013138788752258,-0.015118503011763,-0.013754772953689,0.0092449309304357,-0.0046259895898402,0.012749682180583,0.026715649291873,-0.0047664032317698,0.0057470230385661,0.0034281031694263,-0.012963383458555,0.025590240955353,0.029349155724049,0.029170013964176,-0.012297380715609,-0.031346037983894,-0.018422808498144,0.031330160796642,0.0257508456707,-0.0052602016367018,0.027369547635317,0.025350045412779,0.004431065171957,-0.0023722441401333,0.020313126966357,0.0152633395046,0.012810119427741,-0.0072204889729619,0.022889452055097,-0.0074844481423497,-0.011085214093328,-0.02277067117393,-0.030715046450496,-0.031097797676921,0.021683113649487,-0.028856994584203,0.015065521933138,0.021078292280436,0.031524397432804,-0.028104456141591,-0.012174894101918,-0.0086321793496609,-0.021475257351995,-0.029206339269876,-0.022116389125586,0.014630788937211,-0.00020651088561863,-0.0064621386118233,0.027225490659475,0.012672461569309,0.009233120828867,-0.016841085627675,0.00064594397554174,0.0058173462748528,0.016163669526577,0.027157463133335,0.014300710521638,-0.025401433929801,-0.019970938563347,-0.0041789975948632,-0.012991572730243,-0.013024743646383,-0.024047737941146,0.019894482567906,0.023504886776209,0.025570638477802,-0.020973930135369,0.022019969299436,0.0075903828255832,-0.016474319621921,-0.0022606223355979,0.012200330384076,0.021713988855481,-0.021969268098474,0.011065764352679,-0.011120492592454,-0.013298177160323,-0.010799815878272,0.0042511732317507,0.026089064776897,0.028202617540956,0.01029310002923,-0.027110740542412,-0.0054113790392876,-0.026939464733005,0.0037222667597234,-0.027467381209135,-0.012172240763903,-0.011100078001618,-0.010220854543149,-0.0096806297078729,0.0042038159444928,-0.0036203940398991,-0.010949363932014,-0.023638609796762,-0.027772836387157,0.0079135075211525,0.00092992774443701,-0.012017363682389,0.0090229213237762,-0.016241183504462,0.0054655899293721,-0.0079933786764741,-0.023992277681828,-0.026490040123463,-0.018454911187291,0.013108697719872,-0.022000875324011,-0.012372821569443,-0.020740587264299,0.031185701489449,-0.015451079234481,0.031007897108793,0.022508349269629,-0.0078787533566356,-0.008093892596662,0.010802200995386,-0.026409378275275,0.014278177171946,-0.0079740472137928,-0.018222853541374,-0.01320786960423,0.0052469777874649,-0.028980383649468,-0.024454655125737,-0.0069837649352849,-0.019844762980938,-0.022128013893962,-0.021741969510913,0.023400297388434,-0.025456100702286,-0.002709926571697,-0.00806774944067,-0.025951290503144,0.023153809830546,-0.030653707683086,-0.0028001184109598,0.021503269672394,0.011076429858804,-0.029326040297747,-0.020533591508865,0.0064953491091728,-0.0072930683381855,0.015789613127708,0.016976211220026,0.024562999606133,0.00069094082573429,0.028198264539242,0.021897118538618,-0.02557328902185,0.0037994792219251,-0.012271637097001,0.0086271502077579,-0.027327282354236,-0.023373443633318,-0.018219931051135,-0.015148020349443,-0.021428951993585,-0.023970063775778,-0.015797892585397,0.024250054731965,0.0067177852615714,-5.9561011767073e-07,0.031006010249257,0.030922304838896,-0.01992379128933,-0.0097685465589166,-0.027191763743758,0.0042864256538451,-0.025097059085965,0.030648669227958,0.026584042236209,0.0078954696655273,0.031242031604052,0.030011389404535,0.031398810446262,-0.017523152753711,-0.023208765313029,-0.022661332041025,-0.022344714030623,-0.021112099289894,0.024915067479014,-0.028269881382585,-0.0053534521721303,-0.01913646236062,0.0029211901128292,0.029738651588559,0.025819661095738,-0.027273243293166,0.020669462159276,0.018000528216362,0.031368691474199,0.0026132750790566,-0.028676111251116,-0.016172433272004,-0.016507072374225,-0.00056686729658395,-0.011155990883708,0.00010773773828987,0.023085415363312,0.027023999020457,-0.0069240373559296,-0.024376973509789,-0.025158897042274,-0.010945742018521,0.025593768805265,0.0081975273787975,-0.028861926868558,-0.0079660248011351,-0.017424227669835,-0.02017948590219,0.0011953274952248,0.01145542319864,0.010158572345972,0.0099595440551639,0.025474570691586,-0.023205798119307,0.027519071474671,0.023169305175543,-0.010041372850537,0.019268192350864,-0.031298667192459,0.031045317649841,0.010542732663453,-0.0079149585217237,-0.010533873923123,-0.00053400156321004,0.017431017011404,-0.0033490625210106,-0.025453664362431,-0.030468331649899,0.0024007293395698,0.018778832629323,-0.016687365248799,0.0037285792641342,-0.0019073431612924,0.028620423749089,0.0013847757363692,0.026337755843997,0.029781274497509,0.014172404073179,0.017351722344756,0.025434529408813,-0.010612823069096,0.010824535042048,0.018740521743894,0.01958879083395,-0.0093012684956193,-0.024286175146699,0.00032719149021432,0.0053009456023574,0.0047569912858307,0.026606820523739,0.0028352327644825,0.007569414563477,0.024581862613559,0.019611682742834,0.027790982276201,0.012039859779179,0.023192705586553,-0.029878871515393,0.0095313088968396,0.021654527634382,-0.0053570666350424,-0.029289212077856,-0.017297383397818,0.014591071754694,0.031149890273809,-0.027332818135619,0.020587494596839,0.0054111434146762,0.0030756152700633,-0.025291645899415,0.017158403992653,-0.0080292271450162,-0.017724879086018,0.0085814967751503,-0.021474858745933,0.028933292254806,0.0011230179807171,0.025819778442383,-0.0066794943995774,-0.014121717773378,-0.0035985284484923,0.0066559943370521,0.015269242227077,0.0046062306500971,0.022856589406729,0.0057181133888662,-0.0068661547265947,-0.0018405826995149,-0.010988092981279,0.015261483378708,-0.0082928566262126,0.029972994700074,-0.022883843630552,-0.031101645901799,0.0096223568543792,-0.026831168681383,-0.00067805306753144,0.010816732421517,0.0087037933990359,-0.0098636820912361,0.008229898288846,-0.00053406995721161,0.0052670282311738,-0.001888261991553,-0.012902257032692,-0.025233218446374,0.01852523162961,0.0091426940634847,0.0043355985544622,0.024184314534068,0.017166940495372,0.022713689133525,-0.029574356973171,-0.0046409112401307,-0.012125511653721,-0.021032445132732,-0.024717755615711,0.018277371302247,-0.0058809788897634,-0.015301434323192,-0.002343684900552,-0.005017607472837,0.010696030221879,0.015374806709588,-0.023925988003612,-0.025460544973612,0.012163143604994,-0.031102396547794,0.025691768154502,-0.030453644692898,-0.011950836516917,0.020514748990536,0.021528083831072,-0.018901107832789,-0.011539508588612,0.014306467957795,0.022987579926848,-0.023539051413536,0.021358985453844,-0.0088608516380191,-0.022540649399161,-0.0024823837447912,0.0029551007319242,-0.0180220939219,0.01055477000773,-0.0059558604843915,-0.020845571532845,0.02978808991611,0.0066815190948546,-0.012131116352975,0.016390444710851,-0.025375712662935,0.00084778392920271,-0.013901839032769,-0.0071713998913765,-0.024408902972937,-0.016582261770964,0.017542280256748,0.021667214110494,-0.029082600027323,0.01282645855099,0.015217714011669,0.0015935238916427,0.022359356284142,-0.0042684213258326,-0.0066176964901388,-0.024615654721856,0.013546709902585,-0.013880383223295,-0.024389389902353,-0.0067099300213158,-0.0051604048348963,0.0072205658070743,-0.021911084651947,-0.014985116198659,0.0054764291271567,-0.030703129246831,-0.013643919490278,0.028410021215677,-0.010501887649298,0.014292240142822,9.7088166512549e-05,0.0099819675087929,0.030052956193686,0.01819920912385,-0.030328705906868,0.00043098311289214,0.0035814656876028,-0.014793248847127,0.025975219905376,0.02882326208055,-0.029565159231424,0.024321278557181,0.02485142275691,-0.014663438312709,-0.029771476984024,-0.020987978205085,0.026277504861355,-0.025029001757503,-0.021253935992718,-0.0092888623476028,0.017489036545157,0.023728000000119,0.0020856747869402,-0.0018197813769802,-0.013450568541884,-0.016690643504262,-0.028228810057044,-0.015638824552298,0.0053989831358194,0.023741852492094,-0.012242475524545,-0.017320595681667,0.0023916121572256,0.009701469913125,-0.030674969777465,-0.0076363780535758,-0.031071240082383,-0.0055170101113617,-0.022551503032446,-0.005780394654721,0.018682776018977,-0.02653206512332,0.0014770107809454,-0.020654354244471,0.017548393458128,-0.013198455795646,0.027454268187284,0.018621910363436,-0.021147465333343,-0.029831241816282,0.0094197299331427,-0.016739804297686,0.025325462222099,-0.00049615639727563,-0.010041274130344,-0.0071844570338726,0.02181401103735,0.02582548931241,-0.021099828183651,-0.018916772678494,-0.028267178684473,-0.021014669910073,0.012910705059767,-0.0022300316486508,-0.017360327765346,0.017320342361927,0.020161457359791,-0.030894130468369,0.021246481686831,-0.020012643188238,-0.014696819707751,0.013232606463134,0.012250002473593,0.013989702798426,-0.027055274695158,-0.031201552599669,0.029937319457531,-0.017382964491844,-0.018112525343895,-0.021320378407836,0.00052458146819845,-0.010808504186571,0.02201409637928,-0.013264783658087,0.0099301235750318,-0.026628766208887,-0.018258163705468,-0.012924794107676,0.011590071953833,0.010324598290026,-0.01603983156383,0.014603827148676,-0.025274962186813,-0.03093171864748,-0.0025028856471181,0.0025755013339221,0.0048204865306616,-0.030694665387273,0.022427309304476,0.025861814618111,0.019883470609784,-0.029993304982781,0.0019652049522847,0.030556121841073,-0.0056560090743005,-0.016806550323963,-0.030658168718219,0.021194661036134,-0.016969550400972,-0.026858236640692,-0.0061679533682764,0.026771888136864,-0.011506312526762,0.02652895078063,0.013079507276416,-0.030130129307508,0.016499238088727,0.0064106453210115,0.015228608623147,0.026158789172769,-0.016786007210612,-0.030085088685155,0.010009245947003,-0.014312267303467,-0.0092884516343474,-0.028784994035959,-0.020622601732612,-0.02893122844398,-0.023804331198335,0.016525724902749,0.027857918292284,-0.0038565539289266,0.018400045111775,-0.026476494967937,0.0079921633005142,0.0017476020148024,-0.023141600191593,0.0090291332453489,0.0030436317902058,0.022558726370335,-0.013988294638693,-0.0047586127184331,-0.026895675808191,0.023718787357211,-0.00079721154179424,-0.016922133043408,0.013861561194062,0.015195240266621,0.0015539722517133,0.028423681855202,0.010126738809049,-0.011205003596842,-0.031360022723675,-0.023608149960637,0.019975429400802,-0.018176918849349,-0.023060830309987,-0.022591579705477,0.0026233165990561,0.0032302641775459,0.0011131508508697,0.0025807549245656,-0.030224803835154,0.0068344874307513,-0.031309273093939,-0.002780077746138,-0.0017975376686081,0.026174021884799,0.0029416617471725,-0.003423543414101,0.019126178696752,-0.010063008405268,0.0033327827695757,0.030697857961059,-0.028799371793866,-0.014720473438501,-0.011565841734409,-0.022178055718541,0.018725529313087,0.013780416920781,-0.002806763863191,0.0096231941133738,0.0084538161754608,0.0040914071723819,-0.017444176599383,0.02073623239994,0.0092472173273563,0.020939340814948,0.030888676643372,-0.0054198172874749,-0.024266049265862,-0.00036484043812379,-5.6318844144698e-05,0.01808943785727,-0.016285886988044,0.026671588420868,0.01711492612958,-0.014110163785517,0.017844822257757,0.0047900821082294,0.01368032861501,-0.0064774071797729,-0.012940044514835,0.013050957582891,0.027199974283576,-0.0091948714107275,-0.025158859789371,-0.016349917277694,0.017652163282037,0.014176583848894,-0.0007681975257583,0.0083025908097625,-0.0038214207161218,0.027832454070449,0.02160382643342,-0.029652191326022,0.0074413758702576,-0.017575390636921,-0.016271973028779,-0.016450045630336,0.0032422097865492,-0.003817711956799,0.028662450611591,-0.028657490387559,-0.0056728217750788,0.0097307125106454,0.018514623865485,-0.014375607483089,0.017541889101267,-0.017389580607414,-0.025323318317533,-0.0062364274635911,0.028018027544022,0.021215422078967,-0.015144677832723,-0.020013019442558,-0.00093228148762137,0.030840240418911,-0.030704703181982,0.011358022689819,0.024167645722628,-0.023039946332574,-0.023311505094171
-0.010482843965292,-0.026742188259959,0.0085577201098204,0.012119586579502,-0.010987686924636,-0.010422307997942,-0.01161995343864,-0.02102461643517,-0.026312341913581,-0.00066490523749962,-0.011402505449951,-0.011866416782141,-0.00113048881758,0.019318958744407,-0.012534002773464,0.017853425815701,-0.029596231877804,0.0059219254180789,0.012556600384414,0.024746041744947,-0.018799202516675,0.020616689696908,-0.016478164121509,0.018583877012134,0.0063535706140101,0.0082901548594236,0.030161326751113,-0.012123756110668,0.018265100196004,-0.028227128088474,0.024916378781199,0.020357578992844,-0.030936095863581,0.022924458608031,0.02308439090848,-0.0042411745525897,0.0083686569705606,-0.0094404499977827,-0.027291810140014,-0.00085095525719225,-0.024873713031411,0.015197443775833,-0.021571166813374,0.014899365603924,-0.0071271564811468,0.010381140746176,0.023866795003414,0.0085120880976319,0.0059155030176044,0.013185032643378,-0.025935214012861,-0.020723020657897,0.0095456391572952,0.024594428017735,-0.0032948637381196,-7.8566627053078e-05,-0.016792295500636,-0.0064976448193192,0.022103954106569,-0.0084830932319164,0.0049146427772939,0.011614360846579,-0.017307959496975,-0.016159759834409,-0.020725032314658,0.020840628072619,-0.008695300668478,0.0027696483302861,-0.020554168149829,-0.010938693769276,0.012797323986888,0.016224268823862,-0.01252937503159,-0.012542617507279,-0.0054246536456048,-0.00162159698084,0.020744785666466,-0.015429283492267,0.0041068950667977,-0.019369870424271,-0.0061742314137518,0.0019583834800869,-0.011974639259279,-0.015213396400213,0.01902830787003,0.0091320676729083,-0.011730164289474,0.015143210999668,0.026897691190243,-0.0048716962337494,-0.0057114902883768,0.026382196694613,0.0024587793741375,-0.0063197105191648,0.010988119989634,0.020644214004278,0.025976661592722,-0.0028952290304005,-0.0069136982783675,-0.022073717787862,-0.024986920878291,0.028791734948754,-0.0029383145738393,-0.022018084302545,-0.0068085859529674,0.011940971016884,-0.028541151434183,-0.00094322575023398,-0.021447209641337,-0.028942592442036,0.019791215658188,0.012587931007147,0.011946397833526,-0.026240829378366,-0.017841259017587,0.011202186346054,0.011382611468434,-0.028398962691426,-0.024991488084197,0.028593096882105,-0.013719744980335,0.012115421704948,-0.020817250013351,0.01999020203948,0.00089063035557047,0.0038816183805466,0.026668660342693,0.0030319408979267,0.012621342204511,0.0057367705740035,0.0064946357160807,0.028364213183522,-0.013788712210953,-0.025429701432586,-0.004166079685092,0.0019423731137067,0.029535815119743,0.029446262866259,-0.0020371554419398,-0.0037807147018611,-0.0013516632607207,-0.0051392903551459,-0.0053305509500206,0.0086806202307343,0.0031351619400084,-0.013202751986682,-0.020251115784049,0.029416440054774,-0.0028419394511729,-0.010113665834069,-0.014297313056886,-0.028987523168325,-0.016850391402841,0.01641433686018,0.0088930539786816,-0.018662879243493,-0.024393111467361,0.025797048583627,-0.011385637335479,0.024817600846291,-0.012620910070837,-0.022284906357527,0.025776661932468,-0.0044610220938921,-0.0029604975134134,0.0055030835792422,0.016338860616088,0.019168546423316,0.031262788921595,-0.010685957036912,-0.0042298724874854,0.010484743863344,-0.0039195558056235,-0.019977793097496,-0.027852142229676,-0.0032747332006693,0.024370172992349,0.02644539065659,0.0013062753714621,0.028111508116126,-0.02851583249867,-0.0038779105525464,0.0049710748717189,0.0018569506937638,0.016397640109062,0.027271494269371,0.025263868272305,0.019834388047457,-0.0074494229629636,0.0099119106307626,0.002277297899127,0.008724526502192,0.017703931778669,-0.022225184366107,0.0017078928649426,0.021676165983081,0.0096361581236124,0.028742341324687,-0.0045690457336605,0.021448841318488,-0.02629816532135,-0.018986955285072,-0.018548218533397,0.01824576407671,0.010031070560217,0.026857605203986,0.0098484577611089,0.028344525024295,0.00126378366258,-0.0080379219725728,0.021435514092445,0.00033308329875581,-0.02985112555325,-0.025058582425117,0.025042310357094,-0.020713269710541,0.030112067237496,-0.014027618803084,-0.011846002191305,0.024971190840006,-0.0025399406440556,-0.0093432888388634,-0.011662472970784,-0.025911280885339,-0.014603851363063,-0.022976020351052,-0.015357829630375,0.0018448162591085,-0.027646185830235,-0.030145859345794,0.017213970422745,0.024588970467448,0.0081092799082398,-0.02829173579812,0.024160098284483,-0.014095829799771,0.016954012215137,-0.012267860583961,0.00064722442766652,-0.019717203453183,0.0081532392650843,-0.025524981319904,-0.020027911290526,0.019718179479241,-0.0054910513572395,-0.0100052151829,0.0087299654260278,-0.013921863399446,-0.01439313031733,-0.030229676514864,0.0047703222371638,0.027511892840266,-0.0078005739487708,0.016674224287271,0.020801281556487,0.0090202577412128,-0.019051220268011,0.014890880323946,0.012671567499638,0.028454942628741,-0.014168902300298,-0.029219295829535,-0.01419722661376,0.022273104637861,-0.02451154217124,0.03012534044683,-0.0057187834754586,0.020289508625865,-0.019642731174827,-0.012362513691187,0.021043652668595,-0.0092534180730581,0.00217224820517,0.0074261398985982,0.018991256132722,0.023552330210805,-0.010142816230655,0.030893610790372,0.00082796503556892,0.0052323010750115,-0.031324718147516,0.01615396514535,-0.0098009845241904,-0.0012256207410246,-0.0057293199934065,-0.011993431486189,-0.0064488290809095,0.008648319169879,0.005441342946142,0.016626883298159,-0.00019923837680835,0.018172362819314,0.0047727250494063,0.010379066690803,0.0065423068590462,0.018703013658524,0.029342027381063,0.02808671630919,0.0015931379748508,-0.01282799243927,0.0013772724196315,0.0088790142908692,-0.021906841546297,-0.029691079631448,0.0046429550275207,-0.023324863985181,0.00050124042900279,0.012500058859587,-0.018077181652188,-0.017556048929691,-0.0051259403117001,-0.013175344094634,-0.02952984161675,-0.020074959844351,-0.00067259650677443,-0.0034866363275796,-0.017869755625725,-0.022151475772262,0.025695029646158,0.011403815820813,-0.029814690351486,-0.01647162437439,0.031366247683764,0.0099197281524539,-0.0015144190983847,-0.030186038464308,-0.03070673160255,-0.021385343745351,-0.013155811466277,-0.020133167505264,-0.0032666365150362,-0.018315117806196,0.010243234224617,-0.019142612814903,0.018111374229193,-0.019769994542003,-0.0021673969458789,-0.031306494027376,0.0031536521855742,0.022137280553579,-0.012089285999537,0.025383122265339,-0.021178524941206,0.012278646230698,0.012232635170221,0.016922820359468,-0.0019953052978963,-0.027115985751152,0.018553821370006,0.0002688126405701,0.026740122586489,-0.01921802945435,0.027759535238147,-0.0083130756393075,0.022111477330327,0.0034565147943795,-0.011808791197836,0.030062977224588,0.0061860177665949,0.0096880625933409,0.003880818374455,0.018617611378431,-0.011797092854977,-0.019932078197598,0.0033971054945141,-0.028682455420494,-0.027554115280509,-0.010810622945428,-0.013788105919957,0.0068937903270125,-0.015904150903225,0.022599270567298,-0.018506834283471,0.03112761862576,-0.016158344224095,0.00043279069359414,0.016531663015485,0.00084757129661739,0.011002982966602,0.0062349601648748,-0.0032868620473891,-0.025845356285572,-0.012338964268565,-0.014747643843293,-0.0074037937447429,-0.022442189976573,-0.019729916006327,-0.0029414179734886,0.023725092411041,-0.016202891245484,0.011744640767574,-0.018091386184096,-0.010485929436982,0.015994440764189,0.0076155182905495,-0.0067275445908308,-0.0074752392247319,0.011218360625207,0.004667550791055,0.010338297113776,0.011622367426753,-0.028993709012866,0.031421042978764,0.00052760285325348,0.010485542938113,-0.0045898039825261,0.023200172930956,0.031472649425268,-0.015723994001746,-0.024256121367216,-0.016421237960458,0.019957402721047,-0.010554324835539,-0.025902390480042,0.023198278620839,-0.0095324348658323,0.027148704975843,0.023701298981905,0.019962580874562,-0.022836297750473,-0.00049644539831206,-0.010663079097867,-0.002153514418751,0.018195202574134,-0.020846556872129,0.018483458086848,0.016950488090515,-0.022934146225452,0.029618658125401,-0.0024429224431515,0.0031412348616868,0.0048005073331296,0.020843321457505,-0.0314065143466,0.017238181084394,0.028172243386507,0.013170077465475,0.010051569901407,0.022634966298938,-0.012676463462412,0.025438914075494,-0.026817802339792,0.028368653729558,0.029021130874753,0.0061051486991346,0.023505477234721,0.016096524894238,0.025700248777866,-5.0256112444913e-05,0.013866093941033,0.020645041018724,-0.027947831898928,-0.024451699107885,-0.019369557499886,-0.028091613203287,-0.0061361184343696,-0.0020822349470109,-0.0071012363769114,-0.012814509682357,0.0091453343629837,0.02191511169076,-0.0093583362177014,-0.014536389149725,0.0029290546663105,0.0061618909239769,0.00097124429885298,-0.021598767489195,-0.0061497553251684,-0.025318933650851,0.001975804567337,0.017401058226824,-0.012322591617703,-0.019589262083173,0.021350294351578,0.02738144993782,-0.0031413657125086,0.021763669326901,-0.016336126253009,-0.023207997903228,-0.0030632899142802,0.0024876352399588,-0.018028788268566,-0.022042790427804,0.031504351645708,-0.0061140051111579,0.02631539106369,-0.014553356915712,-0.024391876533628,0.0039537115953863,-0.0044562919065356,0.0030550195369869,0.021196806803346,0.022108534350991,0.027997136116028,0.014984838664532,0.017831264063716,-0.019797835499048,-0.0038788586389273,0.0056837592273951,-0.0097063956782222,-0.026497421786189,0.0011591563234106,-0.017885377630591,-0.0050445576198399,0.016188941895962,-0.025651417672634,-0.022042939439416,-0.01437431294471,0.010990655049682,0.026299804449081,0.001411292119883,-0.014651861973107,-0.0061575649306178,0.030384507030249,-0.0076061920262873,0.0033521826844662,0.016980335116386,-0.016580227762461,0.0099419038742781,-0.010026872158051,-0.00027177348965779,-0.028139052912593,0.0042156707495451,-0.0063842362724245,0.0087290974333882,-0.017621649429202,0.014819315634668,-0.0061581847257912,0.026320822536945,0.023736096918583,-0.027415292337537,0.02332004904747,0.026073129847646,-0.012563096359372,0.022469161078334,-0.0066215312108397,0.013638132251799,-0.022842830047011,-0.017936423420906,0.0042681382037699,0.029160691425204,0.013130011036992,0.011415514163673,0.0037609569262713,0.027515912428498,0.010087924078107,-0.0054896012879908,0.013117542490363,-0.0021021887660027,0.016414634883404,-0.027480784803629,-0.0079453736543655,-0.023033889010549,0.02766022272408,-0.020027257502079,-0.018327308818698,0.011029073037207,0.023584192618728,-0.0035990455653518,-0.028793804347515,0.016191711649299,0.020215597003698,-0.02338600717485,-0.018971230834723,-0.029447255656123,0.015844870358706,0.0044315410777926,-0.020184138789773,0.023090083152056,-0.0011050621978939,-0.006704084109515,0.011497800238431,-0.022817322984338,0.023047529160976,-0.019420018419623,0.0088287526741624,-0.023300506174564,0.013126758858562,-0.026594128459692,0.010307677090168,0.011415273882449,-0.019303508102894,0.0050821183249354,-0.016969276592135,-0.017102900892496,-0.019427301362157,-0.00060996145475656,-0.0011616949923337,0.022492406889796,0.019300613552332,-0.024895275011659,-0.023039905354381,-0.023757433518767,-0.0064882067963481,-0.024894135072827,-0.017544208094478,-0.015800459310412,0.026290556415915,-0.013180795125663,0.015086838975549,0.030597327277064,-0.017890943214297,-0.0063956435769796,-0.017860144376755,0.017357341945171,-0.028675494715571,0.029516480863094,0.022715134546161,0.0044068889692426,-0.011671617627144,0.027206854894757,-0.015328168869019,-0.012408632785082,-0.013623050414026,-0.020767180249095,0.029587041586637,0.023584244772792,0.0050252247601748,0.026037668809295,0.013417747803032,-0.0026222912129015,-0.0087196761742234,-0.013417672365904,-0.0083464309573174,0.025540528818965,-0.011555710807443,0.025762639939785,-0.010905435308814,-0.013390249572694,-0.024513512849808,0.009416826069355,0.015311202034354,-0.0044661518186331,-0.017327610403299,0.0058678784407675,-0.01225402392447,-0.026124350726604,-0.027579009532928,0.0080705536529422,-0.014562188647687,-0.021897485479712,0.005715798586607,-0.0071626100689173,0.027825018391013,0.017664005979896,0.00099009985569865,0.0036171425599605,0.012737675569952,0.012098449282348,0.010626441799104,-0.028039390221238,0.02802593074739,0.02659204043448,0.018603097647429,0.0015173244755715,0.023229606449604,-0.0026193435769528,-0.016326704993844,0.011166313663125,0.0088664852082729,-0.030483901500702,-0.0052262493409216,-0.025625931099057,-0.019487995654345,-0.011908276006579,-0.0047903782688081,0.022640742361546,-0.013762013055384,-0.0048811617307365,0.017958683893085,0.024522971361876,-0.018666096031666,-0.01580960303545,0.0044331233948469,0.03081045486033,-0.029096215963364,0.0085916174575686,0.028479916974902,0.0063741868361831,0.025215312838554,0.0091600948944688,-0.0091901523992419,-0.0056681851856411,0.024793658405542,-0.018229315057397,0.012309495359659,0.0026593320071697,0.012703618966043,0.014734263531864,-0.021098885685205,-0.0033993262331933,-0.027015972882509,0.025307698175311,0.0091538624837995,-0.029224645346403,-0.031415276229382,-0.0049974271096289,0.006296943873167,-0.015842158347368,-0.0045175584964454,0.027628092095256,-0.016899498179555,-0.0015845666639507,0.00049564451910555,-0.030343720689416,0.024555947631598,0.0069725164212286,0.026908304542303,0.0012346756411716,-0.010896937921643,-0.030344760045409,-0.0016798566794023,-0.028421288356185,-0.0026564972940832,0.0078973472118378,-0.0021981946192682,0.020259916782379,-0.011307479813695,-0.022016359493136,0.020769458264112,-0.013200072571635,-0.018844081088901,-0.0099587347358465,0.0042338338680565,0.021575603634119,-0.023005157709122,0.028227580711246,-0.0074178823269904,-0.022391626611352,-0.010165180079639,-0.025162242352962,0.004240948241204,-0.014084289781749,-0.0054894597269595,0.014065908268094,-0.020718336105347,0.018059693276882,-0.0074583506211638,0.009976246394217,-0.0098467981442809,0.00043626720434986,0.011670216917992,-0.0023369900882244,0.025024134665728,-0.0089532481506467,0.017933882772923,-0.01428968179971,0.0041080960072577,-0.011009749025106,0.022902138531208,0.0059640905819833,0.021714489907026,0.025009548291564,-0.01224213745445,0.025103114545345,-0.0086521804332733,0.012691708281636,0.028200853615999,-0.018028751015663,-0.017842492088675,-0.02906695753336,0.030473345890641,0.016994999721646,0.0035630373749882,0.0052560265175998,0.020690435543656,-0.0082670710980892,-0.024152329191566,0.0055584646761417,0.012943818233907,0.030720062553883,-0.011322189122438,0.0081131691113114,0.027077116072178,0.0063906903378665,-0.0087405946105719,0.0244847740978,0.0032214736565948,-0.0091548208147287,-0.014535505324602,0.0025718589313328,-0.0011039386736229,-0.0054225008934736,-0.012790412642062,-0.030547503381968,-0.014575486071408,0.013233104720712,-0.017123254016042,-0.019281366840005,-0.027808982878923,-0.012785012833774,0.010527989827096,0.030907012522221,-0.01890785805881,0.020033594220877,-0.0094568859785795,-0.017767522484064,0.0061762942932546,-0.00015067594358698,-0.0285719987005,8.3216793427709e-05,-0.025766195729375,0.0050001023337245,-0.025088543072343,0.00081565795699134,-0.023250423371792,0.01539983600378,-0.011819936335087,0.019039863720536,0.030285788699985,-0.021794799715281,0.0053592179901898,0.0078773163259029,0.031181445345283,-0.008537950925529,-0.011774542741477,0.015546458773315,-0.016090877354145,0.022876687347889,-0.027169717475772,0.027982637286186,0.0260663125664,0.0095925843343139,0.021208776161075,0.018049405887723,-0.0041647073812783,-0.021966004744172,0.022543251514435,0.029118880629539,0.0024719315115362,0.015491131693125,0.0241096932441,-0.0077417469583452,-0.0084908660501242,-0.011391222476959,0.019499158486724,0.012450735084713,-0.02934418618679,0.017088759690523,-0.0023329432588071,-0.030135923996568,-0.0070334575138986,0.02830907329917,0.021051082760096,-0.0066460203379393,-0.01685151271522,0.007442869246006,0.013131741434336,-0.0091108530759811,-0.006078536156565,-0.029986975714564,-0.01847374252975,0.0028426141943783,-0.0049756485968828,0.022230226546526,0.018742544576526,-0.015671581029892,-0.002752433065325,0.006798105314374,0.031516633927822,-0.013153781183064,0.025170149281621,-0.0077938348986208,-0.027275633066893,-0.011906214058399,0.0040549654513597,-0.0052885403856635,0.021976122632623,0.0045602167956531,-0.007663007825613,-0.019219474866986,0.027050860226154,-0.021034769713879,-0.012952025048435,0.016322547569871,0.031106738373637,-0.00044889716082253,-0.019350338727236,0.025667991489172,-0.015251368284225,-0.0042632012628019,-0.005980537738651,0.01216356176883,-0.02441318705678,0.017227297648787,-0.012877562083304,-0.010083702392876,0.0048062037676573,0.010159067809582,0.019011400640011,0.014811159111559,-0.030701316893101,0.00096654065418988,0.0048012244515121,0.0082566514611244,0.029878944158554,-0.016528675332665,0.00086971989367157,0.022195482626557,-0.018918883055449,-0.031103810295463,-0.011488669551909,0.0002213161351392,0.023815050721169,-0.027198363095522,0.012908274307847,-0.0098435264080763,0.028647633269429,0.02747836150229,0.0210823379457,0.02540529333055,0.031593769788742,0.019492492079735,-0.0038984802085906,-0.026930924504995,0.0088336830958724,0.019118942320347,0.022234687581658,-0.015349682420492,0.02410602197051,0.024023724719882,0.02561997808516,0.022065473720431,0.027319995686412,0.016346216201782,-0.025505039840937,0.024300511926413,0.026637660339475,-0.014076490886509,-0.0041265971958637,-0.010453883558512,0.028176017105579,-0.019925666972995,0.028841089457273,0.0067904237657785,0.015794211998582,0.028847228735685,-0.031372006982565,0.013905780389905,0.025317134335637,-0.020390726625919,0.0044174701906741,-0.015604321844876,0.0092843314632773,-0.011191526427865,-0.02684717439115,0.00385477906093,0.0052732625044882,-0.028979444876313,0.03031081520021,0.0066417031921446,-0.017804017290473,0.015397794544697,-0.02959456294775,-0.0042243697680533,0.016647156327963,0.008020618930459,-0.030761262401938,-0.00035505535197444,-0.016830874606967,7.1040165494196e-05,0.0036227407399565,0.023778496310115,-0.0096260216087103,-0.015639569610357,0.0079068774357438,0.013915936462581,0.0084573430940509,-0.026023909449577,-0.023018037900329,0.0075098583474755,0.0098816240206361,-0.029695212841034,-0.015280643478036,-0.018073059618473,0.0090914135798812,-0.016144612804055,-0.0091498829424381,-0.015208769589663,0.018631994724274,-0.027701312676072,0.015863161534071,0.017552271485329,0.010577337816358,-0.0067803934216499,-0.018046915531158,0.013163288123906,0.017093630507588,-0.023331303149462,-0.0072836894541979,-0.01784929074347,0.017237409949303,0.0063410019502044,0.019123248755932,-0.029850978404284,0.012934724800289,0.011415802873671,-0.0093302391469479,-0.016516825184226,0.011258405633271
